sid,ssl_mean_000,ssl_std_000,ssl_mean_001,ssl_std_001,ssl_mean_002,ssl_std_002,ssl_mean_003,ssl_std_003,ssl_mean_004,ssl_std_004,ssl_mean_005,ssl_std_005,ssl_mean_006,ssl_std_006,ssl_mean_007,ssl_std_007,ssl_mean_008,ssl_std_008,ssl_mean_009,ssl_std_009,ssl_mean_010,ssl_std_010,ssl_mean_011,ssl_std_011,ssl_mean_012,ssl_std_012,ssl_mean_013,ssl_std_013,ssl_mean_014,ssl_std_014,ssl_mean_015,ssl_std_015,ssl_mean_016,ssl_std_016,ssl_mean_017,ssl_std_017,ssl_mean_018,ssl_std_018,ssl_mean_019,ssl_std_019,ssl_mean_020,ssl_std_020,ssl_mean_021,ssl_std_021,ssl_mean_022,ssl_std_022,ssl_mean_023,ssl_std_023,ssl_mean_024,ssl_std_024,ssl_mean_025,ssl_std_025,ssl_mean_026,ssl_std_026,ssl_mean_027,ssl_std_027,ssl_mean_028,ssl_std_028,ssl_mean_029,ssl_std_029,ssl_mean_030,ssl_std_030,ssl_mean_031,ssl_std_031,ssl_mean_032,ssl_std_032,ssl_mean_033,ssl_std_033,ssl_mean_034,ssl_std_034,ssl_mean_035,ssl_std_035,ssl_mean_036,ssl_std_036,ssl_mean_037,ssl_std_037,ssl_mean_038,ssl_std_038,ssl_mean_039,ssl_std_039,ssl_mean_040,ssl_std_040,ssl_mean_041,ssl_std_041,ssl_mean_042,ssl_std_042,ssl_mean_043,ssl_std_043,ssl_mean_044,ssl_std_044,ssl_mean_045,ssl_std_045,ssl_mean_046,ssl_std_046,ssl_mean_047,ssl_std_047,ssl_mean_048,ssl_std_048,ssl_mean_049,ssl_std_049,ssl_mean_050,ssl_std_050,ssl_mean_051,ssl_std_051,ssl_mean_052,ssl_std_052,ssl_mean_053,ssl_std_053,ssl_mean_054,ssl_std_054,ssl_mean_055,ssl_std_055,ssl_mean_056,ssl_std_056,ssl_mean_057,ssl_std_057,ssl_mean_058,ssl_std_058,ssl_mean_059,ssl_std_059,ssl_mean_060,ssl_std_060,ssl_mean_061,ssl_std_061,ssl_mean_062,ssl_std_062,ssl_mean_063,ssl_std_063,ssl_mean_064,ssl_std_064,ssl_mean_065,ssl_std_065,ssl_mean_066,ssl_std_066,ssl_mean_067,ssl_std_067,ssl_mean_068,ssl_std_068,ssl_mean_069,ssl_std_069,ssl_mean_070,ssl_std_070,ssl_mean_071,ssl_std_071,ssl_mean_072,ssl_std_072,ssl_mean_073,ssl_std_073,ssl_mean_074,ssl_std_074,ssl_mean_075,ssl_std_075,ssl_mean_076,ssl_std_076,ssl_mean_077,ssl_std_077,ssl_mean_078,ssl_std_078,ssl_mean_079,ssl_std_079,ssl_mean_080,ssl_std_080,ssl_mean_081,ssl_std_081,ssl_mean_082,ssl_std_082,ssl_mean_083,ssl_std_083,ssl_mean_084,ssl_std_084,ssl_mean_085,ssl_std_085,ssl_mean_086,ssl_std_086,ssl_mean_087,ssl_std_087,ssl_mean_088,ssl_std_088,ssl_mean_089,ssl_std_089,ssl_mean_090,ssl_std_090,ssl_mean_091,ssl_std_091,ssl_mean_092,ssl_std_092,ssl_mean_093,ssl_std_093,ssl_mean_094,ssl_std_094,ssl_mean_095,ssl_std_095,ssl_mean_096,ssl_std_096,ssl_mean_097,ssl_std_097,ssl_mean_098,ssl_std_098,ssl_mean_099,ssl_std_099,ssl_mean_100,ssl_std_100,ssl_mean_101,ssl_std_101,ssl_mean_102,ssl_std_102,ssl_mean_103,ssl_std_103,ssl_mean_104,ssl_std_104,ssl_mean_105,ssl_std_105,ssl_mean_106,ssl_std_106,ssl_mean_107,ssl_std_107,ssl_mean_108,ssl_std_108,ssl_mean_109,ssl_std_109,ssl_mean_110,ssl_std_110,ssl_mean_111,ssl_std_111,ssl_mean_112,ssl_std_112,ssl_mean_113,ssl_std_113,ssl_mean_114,ssl_std_114,ssl_mean_115,ssl_std_115,ssl_mean_116,ssl_std_116,ssl_mean_117,ssl_std_117,ssl_mean_118,ssl_std_118,ssl_mean_119,ssl_std_119,ssl_mean_120,ssl_std_120,ssl_mean_121,ssl_std_121,ssl_mean_122,ssl_std_122,ssl_mean_123,ssl_std_123,ssl_mean_124,ssl_std_124,ssl_mean_125,ssl_std_125,ssl_mean_126,ssl_std_126,ssl_mean_127,ssl_std_127
NLS002,-0.016939755529165268,0.3616814911365509,-1.0249485969543457,0.812355637550354,0.31198349595069885,0.3863252103328705,0.09113132208585739,0.5251160264015198,0.3363298773765564,0.4985198676586151,-0.10533810406923294,0.41373586654663086,-0.3794441223144531,0.513509213924408,-0.024864792823791504,0.5451197624206543,0.08070652186870575,0.43834930658340454,0.011792229488492012,0.38279351592063904,0.23248007893562317,0.4842705726623535,1.07637619972229,0.3387845754623413,0.4054388403892517,0.4749978184700012,-0.6548557281494141,0.6011983156204224,0.12357912957668304,0.4185596704483032,0.02278604358434677,0.3140043616294861,0.4841821789741516,0.40707576274871826,0.11813089996576309,0.46390634775161743,0.613002359867096,0.4490426778793335,-0.17503896355628967,0.6183009743690491,-0.07118591666221619,0.3200964629650116,0.22090062499046326,0.3738275170326233,0.3423992693424225,0.38253363966941833,-0.2402508407831192,0.6272162199020386,0.1999174952507019,0.4108334183692932,-0.15782101452350616,0.3562045991420746,0.09073775261640549,0.28362104296684265,0.12055054306983948,0.37591469287872314,-0.08993873000144958,0.45606839656829834,0.14236173033714294,0.5714771151542664,0.22412419319152832,0.3437994122505188,0.0770999938249588,0.42484796047210693,-0.10908207297325134,0.7241066098213196,-0.08033590018749237,0.49323779344558716,0.188541442155838,0.3361516296863556,0.12177059054374695,0.42000535130500793,-0.18109458684921265,0.2943623960018158,-0.0054571074433624744,0.49735012650489807,-0.2628006041049957,0.46274620294570923,-0.26257118582725525,0.47388288378715515,-0.04645689204335213,0.3153742551803589,1.317965030670166,0.5105563998222351,0.05550416558980942,0.3725137710571289,0.05844373255968094,0.39143645763397217,0.5324617624282837,0.3724859356880188,-0.28303512930870056,0.4631410837173462,0.2939823567867279,0.35623377561569214,-0.18900534510612488,0.4016565680503845,0.11881419271230698,0.3930165767669678,0.029663806781172752,0.41898250579833984,0.2904508411884308,0.4089783728122711,0.24384507536888123,0.8565502762794495,-1.448587417602539,0.5528149604797363,0.2813883423805237,0.44064638018608093,-0.38834917545318604,0.4085261821746826,-0.17821642756462097,0.31506651639938354,-0.02317291498184204,0.5268159508705139,0.05662698298692703,0.41238871216773987,-0.15201997756958008,0.3064804971218109,-0.11995501071214676,0.45136532187461853,0.9116028547286987,0.46762970089912415,-0.20425771176815033,0.6487396359443665,0.27783021330833435,0.30888330936431885,0.032865215092897415,0.6435360908508301,-2.75551438331604,1.002575397491455,0.35685840249061584,0.3960292637348175,0.14031095802783966,0.3560287058353424,-0.41188305616378784,0.38329896330833435,-1.0575777292251587,0.35056623816490173,-0.4902750253677368,0.4132787883281708,-1.1053965091705322,0.3710388243198395,-0.41876479983329773,0.461952269077301,0.22701308131217957,0.37459465861320496,-0.06952974200248718,0.23088903725147247,-0.07398519665002823,0.4127642512321472,-1.9145731925964355,0.6031873226165771,0.45517510175704956,0.38273173570632935,-0.01304341945797205,0.6427266001701355,-0.32407301664352417,0.5004568696022034,-0.05052356421947479,0.5099998116493225,0.17011839151382446,0.3501467704772949,0.15628261864185333,0.31459763646125793,0.05341193825006485,0.227834552526474,0.6904738545417786,0.3414919674396515,2.436718463897705,0.8557789325714111,-0.1272820383310318,0.35237208008766174,0.23469266295433044,0.41445276141166687,-0.19185274839401245,0.4824642539024353,0.12522636353969574,0.5120368003845215,0.7863337397575378,0.46955186128616333,-0.1454882174730301,0.6652872562408447,-2.922532320022583,0.723696231842041,0.061347123235464096,0.3427273631095886,0.37057846784591675,0.500937819480896,0.17876772582530975,0.47393858432769775,-0.7634451985359192,0.46529191732406616,-0.11213693022727966,0.3421260714530945,0.6351383328437805,0.3673611283302307,0.2810250520706177,0.31925973296165466,-0.040957655757665634,0.4680827856063843,0.7946065068244934,0.43375298380851746,-1.077743411064148,0.38223975896835327,-0.21793077886104584,0.3184919059276581,-0.06980000436306,0.27850279211997986,0.2888262867927551,0.5200097560882568,-0.39729341864585876,0.7413530349731445,0.3956911265850067,0.32443520426750183,-0.23907437920570374,0.2967895269393921,-0.09109702706336975,0.354233980178833,0.5533028244972229,0.2908840775489807,-0.17588096857070923,0.5185272097587585,-1.488688588142395,0.4381779134273529,0.13539811968803406,0.29017919301986694,-0.2936159372329712,0.2895936965942383,-0.2273114025592804,0.30735889077186584,2.334505558013916,1.0201258659362793,0.13537602126598358,0.5519400238990784,0.9488389492034912,0.41794395446777344,1.0008763074874878,0.6044926047325134,0.6153700351715088,0.32312148809432983,0.3992169499397278,0.3903672397136688,-0.3721175789833069,0.365789532661438,-0.18820716440677643,0.38024699687957764,-0.3006291091442108,0.38587528467178345,0.4914771020412445,0.49188995361328125,-0.2731552720069885,0.40574586391448975,-0.09759914875030518,0.26224765181541443,-0.09578792005777359,0.4434836506843567
NLS022,-0.04023639112710953,0.3471370339393616,-0.9839034080505371,0.5878599286079407,0.35969072580337524,0.43103694915771484,0.06488855928182602,0.46537017822265625,0.22882063686847687,0.7058498859405518,-0.04191860556602478,0.46406710147857666,-0.45366424322128296,0.6564027070999146,-0.03738915175199509,0.6932675242424011,0.08512984216213226,0.465457022190094,-0.047981392592191696,0.5743018388748169,0.22894005477428436,0.6087616086006165,1.0093796253204346,0.4359343945980072,0.3914717733860016,0.3710078001022339,-0.5773129463195801,0.4739481210708618,0.08212719112634659,0.4975992441177368,0.05268647149205208,0.33062514662742615,0.45565739274024963,0.3956303000450134,0.06727882474660873,0.5685190558433533,0.6298455595970154,0.5349502563476562,-0.07008412480354309,0.5576456189155579,-0.09456642717123032,0.4873165786266327,0.31409958004951477,0.40771254897117615,0.3043125867843628,0.6136282086372375,-0.24131806194782257,0.8109580874443054,0.17971201241016388,0.333533376455307,-0.09587683528661728,0.5481359362602234,0.14251656830310822,0.3510236442089081,0.10235347598791122,0.39804643392562866,-0.03963685408234596,0.6252424716949463,0.09269550442695618,0.729922354221344,0.2894536554813385,0.5805068612098694,0.06570076197385788,0.4808846116065979,-0.14252708852291107,0.6529161334037781,-0.08358842879533768,0.6138798594474792,0.10845363140106201,0.5089665055274963,0.09772635996341705,0.5052282810211182,-0.18044668436050415,0.40578722953796387,0.0572478324174881,0.48072168231010437,-0.31376221776008606,0.4298318028450012,-0.1873513013124466,0.5220569968223572,0.012422805652022362,0.33145493268966675,1.2933112382888794,0.48380398750305176,0.1344337910413742,0.4690391719341278,0.09068864583969116,0.4419585168361664,0.4828932583332062,0.4765656292438507,-0.28526630997657776,0.5167769193649292,0.2364870011806488,0.6331730484962463,-0.18821848928928375,0.4621918201446533,0.1259971410036087,0.3511793613433838,0.07189898192882538,0.5156183242797852,0.3511839509010315,0.5092188119888306,0.17361226677894592,0.7678279876708984,-1.4320930242538452,0.760085940361023,0.21305374801158905,0.48392200469970703,-0.38455379009246826,0.4630680978298187,-0.12389867752790451,0.546478807926178,-0.03217992186546326,0.6605322957038879,0.011001300066709518,0.6200370192527771,-0.17308227717876434,0.43763408064842224,-0.10371923446655273,0.4242038130760193,0.9348102807998657,0.4019277095794678,-0.1513545662164688,0.5752730369567871,0.27618545293807983,0.3840320110321045,-0.06687137484550476,0.6565172076225281,-2.7603917121887207,0.9289986491203308,0.45637866854667664,0.41471925377845764,0.13275381922721863,0.4853000342845917,-0.42686039209365845,0.4982610046863556,-1.0357935428619385,0.36265742778778076,-0.49425143003463745,0.43287256360054016,-1.0844461917877197,0.41150763630867004,-0.4422816336154938,0.6705536246299744,0.1931123584508896,0.4193744659423828,-0.02533552050590515,0.3869258761405945,0.007166736759245396,0.5417150259017944,-1.913415551185608,0.7200751304626465,0.4588801860809326,0.5170180797576904,-0.006359984632581472,0.5768711566925049,-0.24620938301086426,0.5254385471343994,0.017278796061873436,0.43171602487564087,0.12963511049747467,0.45492300391197205,0.17485733330249786,0.4802117645740509,-0.030542545020580292,0.37276744842529297,0.6526122689247131,0.38272297382354736,2.401726245880127,0.7686899900436401,-0.19757887721061707,0.40602999925613403,0.20974470674991608,0.38905027508735657,-0.19680006802082062,0.517127513885498,0.07575646787881851,0.6155529022216797,0.6920278072357178,0.6197941303253174,-0.10581137984991074,0.8350778818130493,-2.845829486846924,0.9540948271751404,0.00514886062592268,0.3215925097465515,0.3607010245323181,0.6177462339401245,0.20147961378097534,0.5336792469024658,-0.6840136647224426,0.40485885739326477,-0.19415320456027985,0.5172744393348694,0.6358362436294556,0.41445866227149963,0.26010650396347046,0.25603246688842773,-0.06378064304590225,0.6125392913818359,0.8350041508674622,0.5445264577865601,-0.9728083610534668,0.45835080742836,-0.1479949951171875,0.3160106837749481,-0.09720775485038757,0.310611367225647,0.3572290241718292,0.508133053779602,-0.34635937213897705,0.7097212672233582,0.37459224462509155,0.5207158923149109,-0.21967251598834991,0.38768255710601807,-0.09463819116353989,0.4101216495037079,0.4982421398162842,0.35576626658439636,-0.18154524266719818,0.5635260343551636,-1.383313536643982,0.5121266841888428,0.19362464547157288,0.3064749240875244,-0.2469385266304016,0.4403593838214874,-0.1667627990245819,0.4496058225631714,2.312086582183838,0.9908827543258667,0.09223085641860962,0.5303622484207153,0.8523322343826294,0.49566319584846497,1.0235848426818848,0.6407324075698853,0.4957404136657715,0.4765605032444,0.404459685087204,0.4792981743812561,-0.37969738245010376,0.45549631118774414,-0.2074241191148758,0.4600869119167328,-0.3700476586818695,0.46509721875190735,0.38201606273651123,0.5351037979125977,-0.14948968589305878,0.5717613101005554,-0.15162821114063263,0.43735286593437195,-0.13680453598499298,0.42452824115753174
NLS033,0.041442450135946274,0.7932060360908508,-0.7489654421806335,0.8173871040344238,0.5222222805023193,0.611796498298645,-0.0056132301688194275,0.6610865592956543,0.3619310259819031,0.5205504298210144,-0.0921613797545433,0.5388189554214478,-0.5403382778167725,0.6018847227096558,-0.06187482923269272,0.40480244159698486,0.09553546458482742,0.7925554513931274,0.00837224256247282,0.6490774750709534,0.38271504640579224,0.6449843049049377,0.9062783122062683,0.5482529997825623,0.2599799633026123,0.4371304214000702,-0.5583198666572571,0.7478817701339722,0.06865544617176056,0.5407280921936035,0.17658349871635437,0.37148961424827576,0.4388967752456665,0.4762551486492157,0.016857312992215157,0.5419259071350098,0.7369555234909058,0.6545724272727966,-0.4860462248325348,0.41074928641319275,-0.09354254603385925,0.6956111192703247,0.19596295058727264,1.016119122505188,0.006762342993170023,0.379085510969162,-0.214043527841568,0.7011709213256836,0.2573775351047516,0.3836979568004608,-0.11155986785888672,0.6544269919395447,0.21827968955039978,0.3469977080821991,0.054521821439266205,0.46664249897003174,-0.19449204206466675,0.5911688208580017,0.1859205961227417,0.8095797896385193,0.47478532791137695,0.4758123755455017,0.07253789156675339,0.927919864654541,-0.019651707261800766,0.6655036807060242,0.17291156947612762,0.842678427696228,0.04886172339320183,0.6798624992370605,0.03857780247926712,0.5444460511207581,-0.2412916123867035,0.40278980135917664,-0.12224332243204117,0.619438886642456,-0.18272656202316284,0.6030071973800659,-0.030838435515761375,0.6851051449775696,0.035215213894844055,0.35834428668022156,1.3971999883651733,0.7107873558998108,0.2280246615409851,0.5035207867622375,-0.14047357439994812,0.9198949337005615,0.48549285531044006,0.49160051345825195,-0.184270441532135,0.6697579026222229,0.21504655480384827,0.6390811204910278,0.09648306667804718,0.6666988730430603,0.14669662714004517,0.4461996853351593,0.07649508118629456,0.7100527286529541,0.3531828820705414,0.44711416959762573,0.4676331579685211,0.8879003524780273,-1.2651710510253906,0.4546143114566803,0.20174309611320496,0.5641661882400513,-0.2772476375102997,0.4390779137611389,-0.19901823997497559,0.5216101408004761,0.04172052443027496,0.5425137281417847,0.0034378201235085726,0.6397207975387573,-0.5735223889350891,0.7363498210906982,0.0016363993054255843,0.6303512454032898,0.8342664837837219,0.6704400777816772,-0.5645201802253723,0.5967133641242981,0.14033222198486328,0.7695945501327515,-0.1608758121728897,0.9097917079925537,-2.370140552520752,0.8199986219406128,0.624543309211731,0.7035644054412842,0.03181060776114464,0.4210139214992523,-0.3713298439979553,0.8631460666656494,-0.9374807476997375,0.6433184146881104,-0.6856613755226135,0.5215786695480347,-0.9570913910865784,0.4735960364341736,-0.653121829032898,0.5595981478691101,0.19693467020988464,0.5991905927658081,-0.1717030256986618,0.9190794825553894,0.011902395635843277,0.9532464742660522,-1.5486081838607788,0.8026999831199646,0.29344114661216736,0.8571110963821411,0.11702654510736465,0.6252530813217163,-0.1252385377883911,0.6036304831504822,-0.1683165282011032,0.7202568650245667,0.28008517622947693,0.4530169367790222,0.23704858124256134,0.3958146572113037,-0.09957685321569443,0.5525904893875122,0.44107046723365784,0.4095619320869446,1.967519760131836,0.8398692011833191,-0.3215005099773407,0.5150735974311829,0.24088317155838013,0.5814160108566284,-0.35674306750297546,0.7165746688842773,0.3578640818595886,0.8459312915802002,0.68818199634552,0.7087528705596924,-0.3595565855503082,0.9661315083503723,-2.2432925701141357,1.2002557516098022,0.027631070464849472,0.5166148543357849,0.22893768548965454,0.9653226733207703,0.16980336606502533,0.6556747555732727,-0.8028232455253601,0.8242089748382568,-0.30904674530029297,0.45185545086860657,0.5368987917900085,0.46893930435180664,0.30637452006340027,0.6250090599060059,0.0334336943924427,0.8100742101669312,0.7658143639564514,0.5189259052276611,-0.809184193611145,0.5647436380386353,-0.089417964220047,0.5145605802536011,-0.22025243937969208,0.4381389617919922,0.4365882873535156,0.5528435707092285,-0.5397219657897949,0.746921956539154,0.24445432424545288,0.44165414571762085,-0.28525739908218384,0.7462731003761292,0.0720665454864502,0.40045157074928284,0.5673472285270691,0.5098742246627808,-0.04290592670440674,0.49119487404823303,-0.8995478749275208,0.5761444568634033,0.13312101364135742,0.5617443919181824,-0.18192628026008606,0.5644406676292419,-0.1123117059469223,0.45951077342033386,1.9010374546051025,0.992509663105011,0.17776493728160858,0.6620811820030212,0.83675217628479,0.6841686964035034,0.8144703507423401,0.4013466238975525,0.25379040837287903,0.6412283182144165,0.6194043755531311,0.958099365234375,-0.5776798129081726,0.3881820738315582,-0.17379963397979736,0.3202421963214874,-0.37281543016433716,0.3408621847629547,0.3156338930130005,0.7709018588066101,-0.08055378496646881,0.4683515131473541,-0.18187718093395233,0.38055694103240967,-0.2494167536497116,0.6173788905143738
NLS035,0.056239668279886246,0.4667811691761017,-0.8722956776618958,0.7988699674606323,0.3603798747062683,0.45800718665122986,0.04298967123031616,0.7245205044746399,0.5094051361083984,0.6115798354148865,0.004132966045290232,0.4374937117099762,-0.4481021463871002,0.44691041111946106,-0.06806353479623795,0.7129650115966797,0.1220560148358345,0.4572337567806244,0.1779242306947708,0.3885338604450226,0.29895442724227905,0.4695926606655121,1.017810344696045,0.26578548550605774,0.2817820608615875,0.4757188856601715,-0.8223487138748169,0.6427711248397827,0.23304399847984314,0.4536530077457428,0.10089603811502457,0.28614625334739685,0.42176640033721924,0.3873480558395386,0.2604883015155792,0.5345491170883179,0.5246946811676025,0.43703964352607727,-0.3267706036567688,0.6749645471572876,-0.12192307412624359,0.3947860300540924,0.30305346846580505,0.6109066009521484,0.14780955016613007,0.6916640400886536,-0.4023386836051941,0.546947717666626,0.22291049361228943,0.3711651861667633,-0.2541784644126892,0.5887524485588074,0.16230173408985138,0.37387901544570923,0.050394799560308456,0.4128462076187134,-0.2687084674835205,0.5433585047721863,0.20025253295898438,0.5867265462875366,0.22082990407943726,0.45181435346603394,0.23213647305965424,0.681666374206543,0.07432997226715088,0.8211418390274048,-0.005480767693370581,0.6007615923881531,0.2392425835132599,0.378934770822525,0.0873941034078598,0.4406822919845581,-0.07496944069862366,0.42285603284835815,-0.106275275349617,0.5773260593414307,-0.1708102524280548,0.531235933303833,-0.13979007303714752,0.4129308760166168,-0.08120682090520859,0.41606613993644714,1.4778536558151245,0.5580266118049622,0.06153728812932968,0.4672408103942871,-0.05407540500164032,0.5824642181396484,0.5553696155548096,0.43932610750198364,-0.22440952062606812,0.5291740894317627,0.025121377781033516,0.6894176006317139,-0.01885334588587284,0.5342031121253967,0.08728482574224472,0.4375268220901489,0.0034390673972666264,0.40434497594833374,0.388262003660202,0.43745842576026917,0.4048090875148773,0.8435816168785095,-1.4127507209777832,0.5420828461647034,0.28986936807632446,0.6803910732269287,-0.3847443461418152,0.43310603499412537,-0.1658945530653,0.3231951594352722,-0.04420723021030426,0.558887779712677,0.02422405034303665,0.37783098220825195,-0.3179680109024048,0.4429628849029541,-0.0705135241150856,0.425507515668869,0.8372362852096558,0.3978203237056732,-0.31638678908348083,0.5316298604011536,0.20194467902183533,0.5095818042755127,-0.13921931385993958,0.43020251393318176,-2.614344358444214,1.006350040435791,0.4175681471824646,0.3208206295967102,0.13298985362052917,0.5199668407440186,-0.4028044044971466,0.4882737696170807,-0.9131273031234741,0.38140690326690674,-0.4352554380893707,0.2683209478855133,-1.2272744178771973,0.3136838674545288,-0.40984565019607544,0.581470787525177,0.129812091588974,0.3116579055786133,-0.14517582952976227,0.3142533004283905,-0.07927412539720535,0.4760061204433441,-1.8717929124832153,0.6340529918670654,0.39672690629959106,0.48231279850006104,-0.13010013103485107,0.5482916831970215,-0.10571280121803284,0.47103744745254517,-0.14375188946723938,0.5745868682861328,0.17674484848976135,0.34949958324432373,0.2648809552192688,0.32655709981918335,-0.1772637814283371,0.5361040830612183,0.5827590227127075,0.42473334074020386,2.4242584705352783,0.7834029793739319,-0.24200290441513062,0.48587003350257874,0.18714375793933868,0.3843946158885956,-0.15351909399032593,0.34832409024238586,0.13925713300704956,0.5372048020362854,0.7228631973266602,0.48101097345352173,-0.35534146428108215,0.7562967538833618,-2.6298420429229736,1.0329627990722656,0.09444234520196915,0.3436453342437744,0.2996182143688202,0.6023775339126587,0.3084189295768738,0.438594788312912,-0.5949254035949707,0.4577534794807434,-0.1996607929468155,0.45952245593070984,0.5648996829986572,0.4470677971839905,0.3575035333633423,0.4595451056957245,-0.17560350894927979,0.5396063327789307,0.666961669921875,0.6056507229804993,-1.1111226081848145,0.5534631609916687,-0.12835894525051117,0.2830785810947418,-0.07635129988193512,0.2275003045797348,0.4513593912124634,0.39419814944267273,-0.5243985056877136,0.7163308262825012,0.2639401853084564,0.46337392926216125,-0.0795678198337555,0.525681734085083,0.04648064076900482,0.46966883540153503,0.4839513599872589,0.26020342111587524,-0.05863557755947113,0.4130801558494568,-1.3330398797988892,0.5238701105117798,0.19013191759586334,0.4025269150733948,-0.19976341724395752,0.310901403427124,-0.20976105332374573,0.49009382724761963,2.2324740886688232,0.9656433463096619,-0.005725380964577198,0.4996328055858612,0.8753119111061096,0.37621942162513733,1.1233749389648438,0.5783861875534058,0.4053020179271698,0.5924836993217468,0.5749606490135193,0.39505311846733093,-0.4452493190765381,0.3540394902229309,-0.15980413556098938,0.42456215620040894,-0.26769405603408813,0.4402312934398651,0.3384210169315338,0.4639679193496704,-0.23365554213523865,0.6309065818786621,-0.1020885556936264,0.4672599732875824,-0.23016232252120972,0.6472605466842651
NLS036,-0.1054103672504425,0.37014317512512207,-1.1524572372436523,0.76719731092453,0.42131197452545166,0.4344794452190399,-0.027021704241633415,0.5584123730659485,0.25828516483306885,0.525032639503479,-0.09478002041578293,0.35735610127449036,-0.5207526087760925,0.5336683392524719,0.06861263513565063,0.47149574756622314,0.21844437718391418,0.33737319707870483,0.13086946308612823,0.38424357771873474,0.26398929953575134,0.6549156904220581,1.0212841033935547,0.30919164419174194,0.3763115406036377,0.5353264808654785,-0.6087203025817871,0.6044740676879883,0.061668552458286285,0.3799664080142975,0.055823151022195816,0.2896464467048645,0.358452171087265,0.4935735762119293,0.17400972545146942,0.5060232281684875,0.6545535922050476,0.3919529318809509,-0.12922528386116028,0.7140868902206421,-0.1168258935213089,0.37349867820739746,0.36688995361328125,0.41936588287353516,0.2617022395133972,0.43752118945121765,-0.28801700472831726,0.8619094491004944,0.14550229907035828,0.38863688707351685,-0.04280649870634079,0.45088931918144226,0.1443752944469452,0.3033936023712158,0.1744370311498642,0.3736006021499634,-0.03347611427307129,0.6100543737411499,-0.04490439593791962,0.5027821660041809,0.29776260256767273,0.34128230810165405,0.04737146571278572,0.40937718749046326,-0.20700106024742126,0.5682180523872375,-0.07002294063568115,0.3946894407272339,0.11698022484779358,0.37370917201042175,0.05820067971944809,0.4323827624320984,-0.20404741168022156,0.31382372975349426,0.06485855579376221,0.5249324440956116,-0.2568807005882263,0.4981966018676758,-0.1890379935503006,0.5537206530570984,-0.1309235692024231,0.4107820689678192,1.5360082387924194,0.39741310477256775,0.1283653974533081,0.39769595861434937,0.07590920478105545,0.4000900387763977,0.5682857632637024,0.33931246399879456,-0.263528972864151,0.4081038534641266,0.1200793907046318,0.484584778547287,-0.12098167836666107,0.35592183470726013,0.13747313618659973,0.3940792977809906,-0.008145108819007874,0.4064565598964691,0.36420392990112305,0.4670337736606598,0.16862235963344574,0.8795809745788574,-1.5241847038269043,0.4650496244430542,0.30695706605911255,0.5090808272361755,-0.38814979791641235,0.45668238401412964,-0.19371406733989716,0.41870173811912537,-0.02211061678826809,0.44997575879096985,0.06430724263191223,0.6039484143257141,-0.3091413676738739,0.4309704303741455,-0.04620306193828583,0.40706783533096313,0.963987410068512,0.5376409888267517,-0.2253337949514389,0.5991870164871216,0.3492450714111328,0.28993847966194153,-0.17029143869876862,0.6987614631652832,-2.7842702865600586,0.8099836707115173,0.5044922828674316,0.5469442009925842,0.04732678458094597,0.38858649134635925,-0.4879275858402252,0.3610101044178009,-0.9735107421875,0.29405489563941956,-0.4699309170246124,0.3063666522502899,-1.0419644117355347,0.498592346906662,-0.364088773727417,0.30643680691719055,0.19836321473121643,0.36733782291412354,-0.16359202563762665,0.33136802911758423,0.06428631395101547,0.45380228757858276,-1.9247533082962036,0.552941083908081,0.6076730489730835,0.6494831442832947,-0.1673835963010788,0.600192666053772,-0.2494598925113678,0.5872551202774048,-0.03781615197658539,0.5489516258239746,0.25009965896606445,0.535785973072052,0.22127579152584076,0.442626029253006,-0.0493900440633297,0.3208630681037903,0.5566751956939697,0.498246967792511,2.483114004135132,0.7780174016952515,-0.18906211853027344,0.47819361090660095,0.28927454352378845,0.47652482986450195,-0.18961071968078613,0.3875562846660614,0.1221126914024353,0.4578244388103485,0.8434947729110718,0.4675084948539734,-0.09159642457962036,0.7375499606132507,-2.84336519241333,0.8291395306587219,0.03830944746732712,0.40498483180999756,0.49137595295906067,0.451639860868454,0.07784303277730942,0.45311984419822693,-0.701548159122467,0.5094515085220337,-0.08791752904653549,0.31142324209213257,0.6934518218040466,0.3920322060585022,0.25904297828674316,0.2688302993774414,-0.03866766020655632,0.4171820282936096,0.6929119229316711,0.39197075366973877,-0.9399386048316956,0.43862152099609375,-0.17436644434928894,0.34201157093048096,-0.15056520700454712,0.22754698991775513,0.36351528763771057,0.6638139486312866,-0.35828885436058044,0.6851770877838135,0.29218319058418274,0.39811259508132935,-0.2562881410121918,0.4846327304840088,-0.059687718749046326,0.3560154139995575,0.533578097820282,0.305014431476593,-0.03960923105478287,0.7096942663192749,-1.483763337135315,0.4391065239906311,0.20291104912757874,0.29994097352027893,-0.315308153629303,0.2839793264865875,-0.1637706458568573,0.5058895349502563,2.469064235687256,0.6136934757232666,-0.031311556696891785,0.585644006729126,0.8468710780143738,0.34819063544273376,0.9976864457130432,0.5973078608512878,0.542280375957489,0.4422098398208618,0.32248935103416443,0.5144725441932678,-0.4137464761734009,0.3278961479663849,-0.23607398569583893,0.35072529315948486,-0.3639674782752991,0.4240279495716095,0.30789443850517273,0.44106021523475647,-0.26432815194129944,0.398994505405426,-0.1598651260137558,0.3239404857158661,0.016493575647473335,0.4340583086013794
NLS056,-0.10213678330183029,0.4301949143409729,-1.2594060897827148,0.6862161159515381,0.24933841824531555,0.4025457203388214,0.02879015915095806,0.4201694130897522,0.15496432781219482,0.43760958313941956,0.06983265280723572,0.46274685859680176,-0.45696261525154114,0.35555553436279297,0.05339999124407768,0.37559860944747925,0.1505337953567505,0.254984974861145,0.09350255131721497,0.303411602973938,0.045141495764255524,0.5982613563537598,0.9788669347763062,0.3906424641609192,0.5931655168533325,0.7363339066505432,-0.5272616147994995,0.6082001328468323,0.05072534829378128,0.282898485660553,0.021177832037210464,0.27388885617256165,0.4811042249202728,0.37934669852256775,0.29127028584480286,0.47398462891578674,0.6250429749488831,0.5287702679634094,0.040103863924741745,0.4515024423599243,0.04840466380119324,0.47961801290512085,0.27568069100379944,0.5514855980873108,0.34136343002319336,0.4052618145942688,-0.29258641600608826,0.7872562408447266,0.16158896684646606,0.41774389147758484,-0.1390661597251892,0.4126509726047516,0.11179173737764359,0.4199742376804352,0.11191354691982269,0.3021514415740967,-0.08107634633779526,0.3815774917602539,0.04577963799238205,0.3815147578716278,0.25505131483078003,0.38742008805274963,0.08259159326553345,0.5017206072807312,-0.07331471890211105,0.35235533118247986,0.03703862801194191,0.4067894518375397,0.2700473964214325,0.6589438915252686,0.014731913805007935,0.49829331040382385,-0.1814943253993988,0.3830961585044861,0.18908707797527313,0.328276127576828,-0.253926157951355,0.3761904537677765,-0.2002415657043457,0.5423135757446289,-0.1343814730644226,0.3741174340248108,1.5496859550476074,0.5649011135101318,0.02726503275334835,0.4860054552555084,0.11070689558982849,0.34753119945526123,0.7127130031585693,0.3217727541923523,-0.26706254482269287,0.42612460255622864,0.26230913400650024,0.5226715207099915,-0.15089619159698486,0.29171448945999146,0.1352163702249527,0.39211609959602356,0.0655677542090416,0.4366215467453003,0.3203672468662262,0.5368949770927429,0.08847411721944809,0.5422894358634949,-1.434788703918457,0.3512275516986847,0.22191311419010162,0.3676670789718628,-0.37012794613838196,0.37613537907600403,-0.10639774054288864,0.4556412696838379,-0.11976497620344162,0.4920410215854645,0.11272843927145004,0.5061075687408447,-0.1094302386045456,0.46645668148994446,-0.11359496414661407,0.31810861825942993,0.895292341709137,0.43942105770111084,-0.012042570859193802,0.4156096875667572,0.3655796945095062,0.3747985363006592,0.007262259256094694,0.48154282569885254,-3.1101298332214355,0.9394848346710205,0.3490396738052368,0.44161295890808105,0.16958501935005188,0.49145495891571045,-0.4569750130176544,0.31768396496772766,-0.7756204605102539,0.459511399269104,-0.47224727272987366,0.3462497591972351,-1.1684629917144775,0.3210124373435974,-0.3001067638397217,0.47246333956718445,0.1375819593667984,0.24622412025928497,-0.1259995996952057,0.43138253688812256,0.027325039729475975,0.4076535701751709,-2.080267906188965,0.6064774394035339,0.4652520716190338,0.5537397861480713,-0.09023507684469223,0.4742394983768463,-0.27586182951927185,0.6070156097412109,-0.07850232720375061,0.40116000175476074,0.15185965597629547,0.41352152824401855,0.2628474235534668,0.5445083379745483,-0.0996045172214508,0.37950921058654785,0.5836877822875977,0.380354106426239,2.70271635055542,0.7308419942855835,-0.15413805842399597,0.6564803123474121,0.03046317957341671,0.6844103932380676,-0.22019565105438232,0.4897969961166382,0.07128100097179413,0.2801377773284912,0.6901026964187622,0.39022794365882874,-0.14424490928649902,0.7847829461097717,-3.1153340339660645,0.8529214262962341,0.0604172982275486,0.5592420697212219,0.5302979350090027,0.3370290994644165,-0.014071447774767876,0.48852428793907166,-0.72856205701828,0.44662392139434814,-0.138005793094635,0.34821105003356934,0.7283459305763245,0.49808213114738464,0.23874594271183014,0.38895970582962036,0.0077548217959702015,0.5239115357398987,0.6992020606994629,0.5965753197669983,-1.1118749380111694,0.7045531868934631,-0.2915058732032776,0.4308830201625824,-0.06979208439588547,0.2212338149547577,0.17164166271686554,0.7649349570274353,-0.24119603633880615,0.5106934905052185,0.33027350902557373,0.3516524136066437,-0.23039297759532928,0.5829426646232605,-0.12393436580896378,0.29185736179351807,0.42528215050697327,0.5132056474685669,-0.2514263093471527,0.49207863211631775,-1.5216174125671387,0.6254642605781555,0.16575606167316437,0.3616377115249634,-0.29478010535240173,0.3356155753135681,-0.13342685997486115,0.5089846253395081,2.68666410446167,1.0073249340057373,0.06636800616979599,0.40668073296546936,0.83985835313797,0.4553203284740448,1.024849772453308,0.3881461024284363,0.6233711838722229,0.5012648701667786,0.391670286655426,0.7705117464065552,-0.3824739456176758,0.37842580676078796,-0.29073265194892883,0.4111056327819824,-0.2732728123664856,0.37443968653678894,0.3316684067249298,0.38474684953689575,-0.2814921736717224,0.37908411026000977,-0.09900342673063278,0.4085511565208435,-0.06454762071371078,0.4165601134300232
NLS069,-0.21847553551197052,0.5354667901992798,-1.1912418603897095,0.7497162222862244,0.4351721704006195,0.6076068878173828,-0.012994552031159401,0.3608364164829254,0.19719986617565155,0.545610249042511,-0.12583132088184357,0.39143696427345276,-0.49248427152633667,0.4623076319694519,-0.007898095063865185,0.40013912320137024,0.1617434024810791,0.2719872295856476,-0.019618256017565727,0.3909550607204437,0.23332031071186066,0.4390864372253418,1.0810365676879883,0.4329391121864319,0.3098044693470001,0.5152269601821899,-0.5803968906402588,0.7410438656806946,0.013341923244297504,0.48457151651382446,0.126561239361763,0.3429781496524811,0.321990430355072,0.5761924386024475,0.14652015268802643,0.5631248354911804,0.768295407295227,0.6661108136177063,-0.21908226609230042,0.5903201699256897,-0.14992773532867432,0.49873167276382446,0.2717875838279724,0.40858814120292664,0.1759580373764038,0.5886766910552979,-0.3525184094905853,0.8578710556030273,0.25767770409584045,0.47217047214508057,0.03835832700133324,0.45474377274513245,0.22403627634048462,0.5491785407066345,0.23731137812137604,0.5089212656021118,0.007178836036473513,0.7174727916717529,-0.07912735641002655,0.498180627822876,0.3975679278373718,0.4788317382335663,-0.04362659901380539,0.5443019270896912,-0.19969527423381805,0.6849170923233032,-0.09104184806346893,0.2640695869922638,0.1960536688566208,0.4869864881038666,0.013581936247646809,0.44227588176727295,-0.2667888104915619,0.34261035919189453,0.10729952156543732,0.46514418721199036,-0.3684225082397461,0.5258356928825378,-0.1720871776342392,0.4973035752773285,-0.046448804438114166,0.4539690613746643,1.470365285873413,0.4509577751159668,0.06713894009590149,0.5604991912841797,0.1715170294046402,0.5624213218688965,0.5547498464584351,0.4168586730957031,-0.09266413003206253,0.5472835898399353,0.20956303179264069,0.39583081007003784,-0.13417814671993256,0.4599904716014862,0.18698914349079132,0.4038476049900055,0.0555892214179039,0.5784019231796265,0.4150248169898987,0.4500139057636261,0.0884399339556694,0.4767470061779022,-1.4160244464874268,0.456254780292511,0.26136183738708496,0.4790324568748474,-0.36301860213279724,0.37845703959465027,-0.14220796525478363,0.4645780324935913,-0.11181414872407913,0.44670480489730835,0.006607071030884981,0.5013610124588013,-0.15323159098625183,0.4839690029621124,0.12278254330158234,0.5340617895126343,0.972362220287323,0.4759090542793274,-0.28699588775634766,0.5224485993385315,0.34140291810035706,0.5289963483810425,-0.2527303695678711,0.7491978406906128,-2.6778643131256104,0.9887245893478394,0.5515602231025696,0.40315285325050354,0.05390455201268196,0.4259486496448517,-0.5294148921966553,0.3529750406742096,-1.0196197032928467,0.4540975093841553,-0.6237035393714905,0.41299301385879517,-1.0577822923660278,0.48627015948295593,-0.3992719352245331,0.5315937399864197,0.30185818672180176,0.45619872212409973,-0.12437912076711655,0.5139255523681641,0.0876513421535492,0.46140581369400024,-1.9828782081604004,0.4986666738986969,0.43020448088645935,0.8039392828941345,-0.0753527358174324,0.5466905832290649,-0.12410510331392288,0.5416732430458069,0.061895713210105896,0.39387086033821106,0.33994996547698975,0.5700258612632751,0.19474196434020996,0.4981478750705719,-0.12496694177389145,0.6137902736663818,0.6308771967887878,0.3748117685317993,2.4606101512908936,0.6480769515037537,-0.2627360224723816,0.5265969634056091,0.2299242466688156,0.4316193759441376,-0.1679638922214508,0.4334176778793335,0.08101434260606766,0.4532594680786133,0.8395542502403259,0.5388909578323364,0.04231014475226402,0.6870841979980469,-2.7664620876312256,0.9918500781059265,-0.021666022017598152,0.3878072202205658,0.5298212170600891,0.46227744221687317,0.06762389838695526,0.48874980211257935,-0.6107522249221802,0.5308981537818909,-0.22598077356815338,0.5859071612358093,0.558375358581543,0.495781809091568,0.35794222354888916,0.4208064675331116,0.09128860384225845,0.5580205321311951,0.6515777111053467,0.5320018529891968,-0.9255428910255432,0.4834318161010742,-0.23838596045970917,0.3523485064506531,-0.08915863931179047,0.38524264097213745,0.29936131834983826,0.389470636844635,-0.40866369009017944,0.6493093967437744,0.36409318447113037,0.4680473804473877,-0.19495540857315063,0.4518444240093231,-0.07441211491823196,0.40674495697021484,0.5653907060623169,0.607001006603241,-0.05238562077283859,0.6150516271591187,-1.3704135417938232,0.5833638310432434,0.10735592246055603,0.3610899746417999,-0.1991143375635147,0.43690991401672363,-0.10891999304294586,0.4710492193698883,2.3796546459198,0.8604109287261963,0.049003344029188156,0.667323112487793,0.8764169216156006,0.48154234886169434,0.939011812210083,0.6463141441345215,0.5340989828109741,0.42986729741096497,0.21261624991893768,0.6855735182762146,-0.5213988423347473,0.46234190464019775,-0.2972765564918518,0.42724013328552246,-0.38791322708129883,0.5834914445877075,0.20824572443962097,0.5473495125770569,-0.16729171574115753,0.5514370203018188,-0.12755854427814484,0.4682529866695404,-0.11919412016868591,0.537235677242279
NLS101,-0.08619815856218338,0.40390387177467346,-1.089695930480957,0.7064129114151001,0.34299665689468384,0.601527750492096,0.0056441957131028175,0.46774935722351074,0.3250882625579834,0.4708232581615448,-0.09230366349220276,0.5985624194145203,-0.48478245735168457,0.5317162275314331,-0.03381436690688133,0.48381945490837097,0.10569852590560913,0.33968228101730347,0.0319487601518631,0.36551350355148315,0.25643816590309143,0.522951602935791,1.0424885749816895,0.4405994415283203,0.35172003507614136,0.48780080676078796,-0.5680918097496033,0.756982147693634,0.08984973281621933,0.5869824886322021,0.13530533015727997,0.25955384969711304,0.46643969416618347,0.40186095237731934,0.08728071302175522,0.4842700958251953,0.5600491166114807,0.4699576497077942,-0.21750232577323914,0.6117365956306458,-0.06285320222377777,0.4028549790382385,0.3483531177043915,0.38743484020233154,0.2216486930847168,0.5641061067581177,-0.1963467299938202,0.7078659534454346,0.1652926653623581,0.4400522708892822,-0.06134577840566635,0.5217963457107544,0.06521283090114594,0.36444586515426636,0.0847119688987732,0.49236923456192017,-0.13538213074207306,0.5814769864082336,0.007963576354086399,0.6395001411437988,0.26372233033180237,0.355864554643631,0.11065340787172318,0.5167549848556519,-0.08357787877321243,0.6360471844673157,-0.09565345197916031,0.4332514703273773,0.1616305112838745,0.47543638944625854,-0.0015920242294669151,0.46941065788269043,-0.22541946172714233,0.4854848086833954,0.050393737852573395,0.38013872504234314,-0.23857586085796356,0.5063153505325317,-0.27558431029319763,0.41488248109817505,-0.08012557029724121,0.337755024433136,1.4590240716934204,0.44436222314834595,0.07691209763288498,0.37319305539131165,0.03506556525826454,0.48763811588287354,0.6253595948219299,0.421139121055603,-0.19885337352752686,0.501937210559845,0.3125419020652771,0.46887141466140747,-0.12210437655448914,0.4267602264881134,0.12518762052059174,0.42278972268104553,-0.037945300340652466,0.42901352047920227,0.30728480219841003,0.49054938554763794,0.1834263801574707,0.7015559673309326,-1.4642263650894165,0.511677086353302,0.3174283504486084,0.4017868638038635,-0.39079827070236206,0.4031340181827545,-0.12059251219034195,0.41291555762290955,-0.028260432183742523,0.6710598468780518,0.06874503195285797,0.3610144555568695,-0.16784295439720154,0.3629468083381653,-0.0759466141462326,0.498247355222702,0.9179905652999878,0.46489381790161133,-0.21680757403373718,0.5827241539955139,0.3098430335521698,0.5770736932754517,-0.09246627241373062,0.625116765499115,-2.831799030303955,0.8246460556983948,0.3461049497127533,0.4647284746170044,0.03965255618095398,0.4402426481246948,-0.5010643601417542,0.36708369851112366,-0.9444895386695862,0.38434475660324097,-0.5130538940429688,0.3907516598701477,-1.169377088546753,0.3166053295135498,-0.4809141755104065,0.4737970232963562,0.2147337794303894,0.37671536207199097,-0.07409539073705673,0.40364450216293335,0.06379999220371246,0.4951575994491577,-2.037858009338379,0.46353328227996826,0.4569275677204132,0.7564104199409485,-0.03822629526257515,0.5480026006698608,-0.16949741542339325,0.5781800746917725,-0.014230556786060333,0.4593418538570404,0.2205202281475067,0.46795952320098877,0.33047980070114136,0.46282458305358887,0.06577404588460922,0.5736571550369263,0.5893389582633972,0.3587203025817871,2.5266225337982178,0.5376768112182617,-0.20797578990459442,0.376336008310318,0.2999175786972046,0.4345635175704956,-0.20820507407188416,0.43821895122528076,0.13088048994541168,0.5715253353118896,0.7814072370529175,0.5411123633384705,-0.09698326140642166,0.5620182156562805,-2.9337151050567627,0.9724984765052795,0.012759272009134293,0.4147363305091858,0.4739827811717987,0.5457268953323364,0.04931124672293663,0.45724087953567505,-0.7063472270965576,0.43888625502586365,-0.12379676848649979,0.3714156746864319,0.6493327021598816,0.49189138412475586,0.2624237835407257,0.5522100925445557,-0.013270284049212933,0.3192266523838043,0.7109952569007874,0.36893555521965027,-1.0769178867340088,0.42278754711151123,-0.19919359683990479,0.3537554442882538,-0.17212259769439697,0.327682763338089,0.2978883981704712,0.46328234672546387,-0.2585541903972626,0.5718638896942139,0.3215019404888153,0.43646976351737976,-0.17365987598896027,0.5326589941978455,0.005155246239155531,0.5339142680168152,0.5034550428390503,0.26098310947418213,-0.1223013624548912,0.49399542808532715,-1.431349754333496,0.48155397176742554,0.15223704278469086,0.4188723862171173,-0.2360296994447708,0.5308522582054138,-0.17834334075450897,0.35731184482574463,2.527265787124634,0.9752621054649353,0.15833589434623718,0.6418938040733337,0.9328109622001648,0.49670159816741943,1.0467605590820312,0.5152672529220581,0.5564253330230713,0.4830021262168884,0.42955735325813293,0.5096824765205383,-0.4098837077617645,0.47027793526649475,-0.18802262842655182,0.4003709554672241,-0.33637815713882446,0.37443333864212036,0.36051642894744873,0.6078606843948364,-0.32932567596435547,0.6308069825172424,-0.17235781252384186,0.3795749843120575,-0.13563629984855652,0.5825068354606628
NLS102,-0.04819262772798538,0.3266775608062744,-1.105281949043274,0.6914482116699219,0.3560771346092224,0.6504801511764526,0.06781550496816635,0.3865434229373932,0.2425188571214676,0.4800454378128052,-0.12656989693641663,0.507124125957489,-0.4731219410896301,0.531692385673523,-0.0016032546991482377,0.3812370002269745,0.10004027187824249,0.36299797892570496,0.017885485664010048,0.37315112352371216,0.1762654036283493,0.4339396059513092,1.047014594078064,0.47095489501953125,0.4625341296195984,0.36486902832984924,-0.5325110554695129,0.7006585597991943,0.06126765161752701,0.7098841071128845,0.008328181691467762,0.2828940451145172,0.406169593334198,0.3916673958301544,0.20602178573608398,0.49257418513298035,0.6813068389892578,0.5228525400161743,-0.08522222191095352,0.5273405313491821,-0.11745312064886093,0.3394995331764221,0.29794901609420776,0.49328404664993286,0.23567041754722595,0.5189010500907898,-0.25063973665237427,0.538002073764801,0.17517396807670593,0.3788599669933319,-0.19518236815929413,0.5105807185173035,0.13264194130897522,0.5156158804893494,0.18601052463054657,0.3607122302055359,-0.011311483569443226,0.4798167943954468,0.09248191118240356,0.5964723229408264,0.2999041676521301,0.46277064085006714,0.05062194913625717,0.5593105554580688,-0.14891359210014343,0.5451299548149109,-0.0606706365942955,0.43409350514411926,0.22239235043525696,0.4100117087364197,0.07958151400089264,0.3909345269203186,-0.17536212503910065,0.3554556369781494,0.13099980354309082,0.48708343505859375,-0.24663472175598145,0.3607889711856842,-0.2056557685136795,0.5987319350242615,-0.02517625130712986,0.36159053444862366,1.4314733743667603,0.5818595290184021,0.07865677773952484,0.5100672245025635,0.06032050773501396,0.554997980594635,0.5067986845970154,0.430300772190094,-0.12990133464336395,0.5243012309074402,0.15282660722732544,0.44750699400901794,-0.05761681869626045,0.4486863911151886,0.1818905621767044,0.2992372512817383,-0.017014632001519203,0.4626098871231079,0.39593058824539185,0.48827511072158813,0.16754765808582306,0.6378380656242371,-1.4944374561309814,0.6355034112930298,0.23835894465446472,0.4445161521434784,-0.38768941164016724,0.5280666947364807,-0.08328855782747269,0.5635361671447754,-0.12069757282733917,0.46677976846694946,-0.0020937337540090084,0.3773462176322937,-0.15316855907440186,0.4406186640262604,-0.024071287363767624,0.4014342725276947,0.9144900441169739,0.41097041964530945,-0.11166218668222427,0.4686175584793091,0.269002765417099,0.5809385776519775,-0.05798821523785591,0.5149535536766052,-2.799628734588623,0.993438184261322,0.4447188377380371,0.6000134348869324,0.14838609099388123,0.44674059748649597,-0.4502691328525543,0.4234716296195984,-0.9452775120735168,0.7230666875839233,-0.47808700799942017,0.3682743310928345,-1.1259723901748657,0.44167768955230713,-0.36703842878341675,0.4918290078639984,0.1840936243534088,0.47587713599205017,-0.16669504344463348,0.6529823541641235,0.054791249334812164,0.5692242980003357,-2.0277812480926514,0.47709277272224426,0.36082929372787476,0.4576297402381897,-0.09736055135726929,0.5090787410736084,-0.15810014307498932,0.45089584589004517,0.030960414558649063,0.5429627299308777,0.20226788520812988,0.5489320755004883,0.20458261668682098,0.4988307058811188,-0.11304016411304474,0.47712481021881104,0.7027813792228699,0.4518723487854004,2.559572696685791,0.670857846736908,-0.31853118538856506,0.4291267693042755,0.17878952622413635,0.3567739725112915,-0.2388661801815033,0.4449986219406128,0.09554366022348404,0.47213560342788696,0.7685787081718445,0.7350702285766602,-0.09120383113622665,0.3991353213787079,-2.8582370281219482,0.7756421566009521,0.01692611537873745,0.42427101731300354,0.3953835368156433,0.5514481663703918,0.0851474404335022,0.463077574968338,-0.6974350810050964,0.3733595609664917,-0.15603090822696686,0.3922288715839386,0.5900317430496216,0.5242726802825928,0.32179945707321167,0.5583924055099487,0.0375964418053627,0.4680251181125641,0.7302641868591309,0.6708764433860779,-1.0629370212554932,0.496113657951355,-0.1643926203250885,0.3962614834308624,-0.04237998276948929,0.42099815607070923,0.3203638792037964,0.47403988242149353,-0.4088347852230072,0.5736643671989441,0.39867186546325684,0.5572091937065125,-0.2374797761440277,0.6647005677223206,-0.07029912620782852,0.37403297424316406,0.502423882484436,0.37106865644454956,-0.2796766757965088,0.5188418030738831,-1.3629209995269775,0.646038830280304,0.1425778865814209,0.42475104331970215,-0.22489528357982635,0.4565610885620117,-0.14623476564884186,0.39154526591300964,2.3539466857910156,0.9564500451087952,0.1044437512755394,0.4020978808403015,0.869533360004425,0.475319504737854,0.9997447729110718,0.5143154859542847,0.5418108701705933,0.624843180179596,0.3776105046272278,0.672133207321167,-0.4051561951637268,0.4407404065132141,-0.2273227721452713,0.523125171661377,-0.39677444100379944,0.43582308292388916,0.3300001621246338,0.5099661946296692,-0.22953113913536072,0.5757742524147034,-0.13046316802501678,0.399168998003006,-0.14050039649009705,0.4159178137779236
NLS121,-0.029393907636404037,0.41312462091445923,-1.1664683818817139,0.7858781814575195,0.39912787079811096,0.45576465129852295,-0.0049539851024746895,0.4255024790763855,0.25528520345687866,0.4922473430633545,-0.09482663869857788,0.4277675449848175,-0.47537386417388916,0.48363080620765686,-0.009760361164808273,0.431815505027771,0.08713144809007645,0.36375460028648376,0.12696513533592224,0.6611778736114502,0.2279401570558548,0.45225244760513306,1.0698590278625488,0.3004706799983978,0.3736792504787445,0.5917606949806213,-0.5872576832771301,0.614177942276001,0.11197049915790558,0.3750450313091278,-0.00985697191208601,0.35030078887939453,0.3640310764312744,0.4722944498062134,0.16190561652183533,0.6853685975074768,0.6307367086410522,0.45086708664894104,-0.18424800038337708,0.4959876239299774,-0.09044459462165833,0.5279699563980103,0.3315085768699646,0.47812917828559875,0.28440427780151367,0.5857291221618652,-0.20794343948364258,0.6447184681892395,0.15388336777687073,0.33362287282943726,-0.23850004374980927,0.4953811764717102,0.0911339521408081,0.35456228256225586,0.20685283839702606,0.3686547577381134,-0.025294166058301926,0.6634371280670166,0.05848658084869385,0.5757089853286743,0.2009655386209488,0.3605455160140991,0.058028291910886765,0.49496108293533325,-0.16427001357078552,0.5037034153938293,-0.022652465850114822,0.4572027921676636,0.14886201918125153,0.42660531401634216,0.05265258252620697,0.712211549282074,-0.11760163307189941,0.29778119921684265,0.027829451486468315,0.4841412305831909,-0.18668819963932037,0.6131239533424377,-0.1647421419620514,0.5725598931312561,-0.12972894310951233,0.5006864666938782,1.4081467390060425,0.5406700968742371,0.07409734278917313,0.49815621972084045,0.029410140588879585,0.5622792840003967,0.576880931854248,0.4212774932384491,-0.25438404083251953,0.4206348955631256,0.2494569569826126,0.43948325514793396,-0.21229083836078644,0.41628995537757874,0.26075512170791626,0.4258838891983032,-0.03609505668282509,0.34876853227615356,0.3154410421848297,0.531464159488678,0.14325807988643646,0.5949974656105042,-1.5222764015197754,0.41303759813308716,0.26954081654548645,0.601216733455658,-0.3484843075275421,0.34022969007492065,-0.12894238531589508,0.40206554532051086,-0.09587656706571579,0.5231679677963257,0.026853693649172783,0.4499092996120453,-0.19260931015014648,0.585953950881958,-0.08333250135183334,0.52114337682724,0.8829654455184937,0.29953721165657043,-0.1461358368396759,0.5730700492858887,0.21985377371311188,0.41314318776130676,0.038965098559856415,0.581678032875061,-2.7621347904205322,0.9266022443771362,0.4145279824733734,0.4268932342529297,0.1531124860048294,0.5158985257148743,-0.5394271016120911,0.39335042238235474,-0.9772279262542725,0.2986408770084381,-0.39895543456077576,0.4276354908943176,-1.129747986793518,0.43232792615890503,-0.39777272939682007,0.5323470830917358,0.20101140439510345,0.5684869289398193,-0.13778522610664368,0.34323859214782715,0.022128455340862274,0.3449873626232147,-2.0147523880004883,0.648009181022644,0.37300899624824524,0.7340880632400513,-0.05564376711845398,0.44003668427467346,-0.22979184985160828,0.4519574046134949,0.019980842247605324,0.4477978050708771,0.20927031338214874,0.4463781714439392,0.2080431580543518,0.39587321877479553,-0.044644538313150406,0.4928220808506012,0.6424844861030579,0.362508088350296,2.6282131671905518,0.8305371403694153,-0.22184254229068756,0.4490906894207001,0.27221760153770447,0.4611002206802368,-0.24197034537792206,0.3341805934906006,0.11181335896253586,0.5654151439666748,0.7597811818122864,0.6721695065498352,-0.04504380747675896,0.5810354948043823,-2.858865737915039,0.9793416857719421,0.02730634994804859,0.4178277552127838,0.4565669596195221,0.6134933829307556,0.13418278098106384,0.3136598765850067,-0.6823047399520874,0.47569456696510315,-0.12911780178546906,0.42215126752853394,0.5717409253120422,0.3232070803642273,0.30074265599250793,0.5749924778938293,-0.0301804319024086,0.38863810896873474,0.7198837995529175,0.5278732180595398,-1.0558758974075317,0.5536961555480957,-0.12517468631267548,0.4013099670410156,-0.03719593957066536,0.37562739849090576,0.3550911545753479,0.5419504642486572,-0.3648322820663452,0.5128167867660522,0.33990901708602905,0.32459312677383423,-0.21052496135234833,0.4624590277671814,-0.027051707729697227,0.3274817168712616,0.4509422481060028,0.592742383480072,-0.1300906389951706,0.5606565475463867,-1.4725160598754883,0.5458647012710571,0.1167866587638855,0.32641854882240295,-0.2721860110759735,0.34782785177230835,-0.19190359115600586,0.4473324716091156,2.4442076683044434,0.9746207594871521,0.0967615395784378,0.4621433615684509,0.9240438342094421,0.4645957350730896,1.0362179279327393,0.4618927240371704,0.5464558601379395,0.41986945271492004,0.3462100327014923,0.5408570766448975,-0.3462308943271637,0.41107892990112305,-0.23350223898887634,0.3947456479072571,-0.29927074909210205,0.4657685160636902,0.429424524307251,0.6005256175994873,-0.259590744972229,0.39677318930625916,-0.1570199429988861,0.4502228796482086,-0.11095684766769409,0.5154098868370056
NLS124,-0.18861360847949982,0.33528298139572144,-1.260687232017517,0.6795523166656494,0.3704633414745331,0.3781963288784027,0.01521633006632328,0.492197722196579,0.17387042939662933,0.46281319856643677,0.05892539024353027,0.40988394618034363,-0.47991955280303955,0.4752974808216095,-0.013044307008385658,0.47095197439193726,0.14381827414035797,0.530052900314331,0.06391289085149765,0.39904823899269104,0.20368479192256927,0.33666571974754333,1.1230919361114502,0.49822843074798584,0.4862454831600189,0.4192871153354645,-0.45995503664016724,0.4060332477092743,0.15284115076065063,0.468756765127182,0.08318425714969635,0.3449079990386963,0.35841333866119385,0.6284634470939636,0.1065901517868042,0.7508528828620911,0.7003940343856812,0.42501506209373474,-0.10274022817611694,0.5759493112564087,-0.08024653047323227,0.3705631196498871,0.3017059862613678,0.4733041822910309,0.2692008912563324,0.5879819393157959,-0.2928839325904846,0.5892425179481506,0.05050446093082428,0.297448068857193,-0.11044059693813324,0.4385753870010376,0.1512688398361206,0.4079850912094116,0.12108303606510162,0.4179261326789856,-0.04342224821448326,0.5133224725723267,-0.05988888815045357,0.5911319851875305,0.3104369044303894,0.3398229777812958,0.08215883374214172,0.5165064334869385,-0.18966686725616455,0.6627281308174133,-0.04882032051682472,0.4838862121105194,0.21370592713356018,0.5481377840042114,0.0014187430497258902,0.29051345586776733,-0.21303421258926392,0.36474230885505676,0.1588335931301117,0.4729822874069214,-0.23252592980861664,0.47996777296066284,-0.17984920740127563,0.6100412607192993,-0.04242103174328804,0.30887138843536377,1.5359495878219604,0.5298119187355042,0.15610750019550323,0.4628806412220001,0.10336022078990936,0.5307939052581787,0.6273049116134644,0.30295631289482117,-0.30037203431129456,0.41120851039886475,0.3385266661643982,0.5351948142051697,-0.2179403007030487,0.35705792903900146,0.23485520482063293,0.3690161406993866,-0.0403423048555851,0.40907472372055054,0.3029482066631317,0.40440690517425537,-0.014565802179276943,0.5470075011253357,-1.585795283317566,0.4230800271034241,0.12172789871692657,0.3572884202003479,-0.3510966897010803,0.4307325780391693,-0.16571876406669617,0.4578440487384796,-0.10746365785598755,0.46546444296836853,0.15499770641326904,0.3038216829299927,-0.1183585599064827,0.4019583761692047,-0.07185102999210358,0.5571409463882446,1.0070089101791382,0.5762030482292175,-0.08196167647838593,0.48502734303474426,0.352152943611145,0.32319021224975586,0.019571730867028236,0.8358447551727295,-3.08189058303833,0.5234391093254089,0.3982946574687958,0.46811914443969727,0.12849700450897217,0.45487865805625916,-0.4330257475376129,0.49137094616889954,-0.8903968334197998,0.4549919068813324,-0.4463694095611572,0.3009096384048462,-1.1679446697235107,0.43636730313301086,-0.3191664218902588,0.5544829368591309,0.17254817485809326,0.33076012134552,-0.13190960884094238,0.5683669447898865,0.07596366852521896,0.4689933955669403,-2.101289987564087,0.49913349747657776,0.5200763940811157,0.4417773485183716,-0.14351890981197357,0.5793948173522949,-0.1976797729730606,0.3999105393886566,0.09085578471422195,0.5956665277481079,0.14516720175743103,0.5172847509384155,0.20755189657211304,0.3321876525878906,0.021967627108097076,0.35525232553482056,0.6078698635101318,0.32539796829223633,2.6676084995269775,0.45890673995018005,-0.29798272252082825,0.5500046014785767,0.2332160323858261,0.42699334025382996,-0.24236173927783966,0.5011944770812988,0.058457981795072556,0.6066066026687622,0.7741934657096863,0.45376473665237427,-0.07121147215366364,0.6536979079246521,-3.026798725128174,0.6125186085700989,-0.001209780341014266,0.34366536140441895,0.5313401818275452,0.5234610438346863,0.06394311785697937,0.42056962847709656,-0.6784113049507141,0.49166563153266907,-0.12791365385055542,0.30359500646591187,0.6566230058670044,0.4501953125,0.15132306516170502,0.4757121801376343,0.027053432539105415,0.516170084476471,0.7108585238456726,0.5115998983383179,-1.083406686782837,0.371388703584671,-0.24420098960399628,0.4165751039981842,-0.12338823825120926,0.32581833004951477,0.13856904208660126,0.5484107732772827,-0.29945915937423706,0.5445944666862488,0.36429181694984436,0.38862255215644836,-0.25483015179634094,0.4485735297203064,-0.010947947390377522,0.3019486665725708,0.4523645043373108,0.3806607127189636,-0.2441592961549759,0.5151504874229431,-1.523710012435913,0.4394906759262085,0.21017922461032867,0.42126163840293884,-0.303463339805603,0.40886983275413513,-0.1493142992258072,0.4346713721752167,2.6787729263305664,0.6517660617828369,0.11572424322366714,0.6628566980361938,0.8984808921813965,0.41370826959609985,1.0379111766815186,0.47531595826148987,0.6327130198478699,0.5103294253349304,0.3894502520561218,0.5583837032318115,-0.3578279912471771,0.3087034523487091,-0.1794995367527008,0.4446536898612976,-0.40607258677482605,0.333069384098053,0.38545212149620056,0.5948200225830078,-0.31699737906455994,0.38437262177467346,-0.0927155390381813,0.27947330474853516,-0.07758010923862457,0.4354015290737152
NLS127,-0.004486145451664925,0.28764769434928894,-1.1758605241775513,0.5151343941688538,0.33778589963912964,0.34554171562194824,0.05324222892522812,0.4556368291378021,0.2803424894809723,0.4061479866504669,-0.0401674248278141,0.5177898406982422,-0.4413066804409027,0.4594951272010803,0.01768026128411293,0.4239240884780884,0.18831175565719604,0.3164421021938324,0.17422053217887878,0.5120824575424194,0.2597256600856781,0.3856177031993866,1.1256474256515503,0.38357120752334595,0.43629664182662964,0.40139520168304443,-0.676371693611145,0.6126290559768677,0.13131166994571686,0.373656302690506,-0.006784458644688129,0.3122788965702057,0.3690311908721924,0.4757646322250366,0.20043420791625977,0.38401004672050476,0.6699461936950684,0.42719823122024536,-0.10110831260681152,0.34745171666145325,-0.11938074976205826,0.2996675372123718,0.21813461184501648,0.509704053401947,0.36204755306243896,0.5897267460823059,-0.2791019678115845,0.5942316055297852,0.14347471296787262,0.31611326336860657,-0.22947223484516144,0.6787421107292175,0.13103871047496796,0.3633292317390442,0.16217853128910065,0.43202024698257446,-0.009567545726895332,0.48185890913009644,0.04978969693183899,0.7013141512870789,0.20014601945877075,0.37800294160842896,0.0984346941113472,0.40185901522636414,-0.09026392549276352,0.48497965931892395,0.02302653156220913,0.4713853597640991,0.2791607081890106,0.5161651372909546,0.060944754630327225,0.3825570344924927,-0.17348848283290863,0.42466413974761963,0.07437723129987717,0.30209699273109436,-0.24869391322135925,0.43165940046310425,-0.23945418000221252,0.49735087156295776,-0.061953701078891754,0.3318741023540497,1.455843448638916,0.3591706454753876,0.06050780788064003,0.4114617705345154,0.10916688293218613,0.4200982451438904,0.5877370238304138,0.36105847358703613,-0.21650554239749908,0.39762887358665466,0.31309378147125244,0.503950834274292,-0.17392538487911224,0.5042930841445923,0.11348829418420792,0.3056652247905731,0.014322646893560886,0.30481085181236267,0.28900325298309326,0.3117537200450897,0.12288260459899902,0.515283465385437,-1.6020632982254028,0.3124929964542389,0.3072111904621124,0.405239462852478,-0.4719275236129761,0.4614644944667816,-0.14178171753883362,0.40450337529182434,-0.08741225302219391,0.4772971272468567,0.07827369123697281,0.3411378860473633,-0.19387958943843842,0.43682798743247986,-0.13718385994434357,0.36670875549316406,0.8860288262367249,0.5390788912773132,-0.20926392078399658,0.4734858274459839,0.24851280450820923,0.715671718120575,-0.021011054515838623,0.42917007207870483,-3.0111234188079834,0.6582340598106384,0.36576664447784424,0.46824944019317627,0.10169310122728348,0.42605340480804443,-0.4594237506389618,0.5065300464630127,-0.9580281972885132,0.45885393023490906,-0.41985899209976196,0.31345540285110474,-1.1618503332138062,0.32303911447525024,-0.3277808129787445,0.37630391120910645,0.11251574009656906,0.4564158022403717,-0.14921577274799347,0.425167053937912,-0.036734383553266525,0.4115374982357025,-2.1663804054260254,0.3246881365776062,0.3915286958217621,0.44719958305358887,-0.11923924088478088,0.4744652509689331,-0.16189026832580566,0.40464717149734497,0.010168271139264107,0.48192235827445984,0.1878008395433426,0.40528109669685364,0.1730443835258484,0.2967637777328491,-0.038233645260334015,0.5121702551841736,0.6601744294166565,0.3109647035598755,2.72697377204895,0.5853042006492615,-0.20524080097675323,0.40316349267959595,0.22933895885944366,0.34759795665740967,-0.24714039266109467,0.41942211985588074,0.1666257232427597,0.46847003698349,0.8332018852233887,0.4570079743862152,-0.10365556925535202,0.5098278522491455,-3.0910816192626953,0.6823287010192871,0.08123955875635147,0.31446948647499084,0.5183002352714539,0.4394582509994507,0.15764383971691132,0.29702168703079224,-0.7748211026191711,0.43464213609695435,-0.08549945056438446,0.3052786588668823,0.6788049936294556,0.3369079530239105,0.27003002166748047,0.31609058380126953,-0.034909650683403015,0.3066116273403168,0.6703622937202454,0.47454196214675903,-1.1462550163269043,0.290920615196228,-0.17727217078208923,0.4867449402809143,-0.018538594245910645,0.31038111448287964,0.2598010003566742,0.5180093050003052,-0.3257821202278137,0.4808484613895416,0.3990646004676819,0.3850558400154114,-0.29780158400535583,0.33977779746055603,-0.10351171344518661,0.42495474219322205,0.5292671918869019,0.4612314999103546,-0.19954153895378113,0.42061948776245117,-1.5794227123260498,0.49925410747528076,0.14094023406505585,0.24259936809539795,-0.25875183939933777,0.27146148681640625,-0.13442999124526978,0.3876785635948181,2.659132480621338,0.7225092053413391,0.07526068389415741,0.4304576516151428,0.9360732436180115,0.342067152261734,1.134168267250061,0.34463006258010864,0.5900487303733826,0.394290030002594,0.3790375888347626,0.4025147259235382,-0.2832675576210022,0.35107091069221497,-0.3557153046131134,0.3898696005344391,-0.3255465626716614,0.27710258960723877,0.43326157331466675,0.45096689462661743,-0.3257059156894684,0.4452119469642639,-0.12439209222793579,0.4194241166114807,-0.0006827906472608447,0.4034796953201294
NLS130,-0.1649116724729538,0.4270765781402588,-1.1922882795333862,0.9148984551429749,0.4224993884563446,0.46161291003227234,0.0004074566240888089,0.5724514126777649,0.26867789030075073,0.3789175748825073,-0.13121971487998962,0.4278813898563385,-0.5175467133522034,0.567541778087616,-0.07048750668764114,0.6155110001564026,0.15823028981685638,0.37930044531822205,-0.0481409914791584,0.3737727403640747,0.32558345794677734,0.7354409098625183,1.1126651763916016,0.40406763553619385,0.26706644892692566,0.48261162638664246,-0.6140127778053284,0.4950017035007477,-0.014710831455886364,0.45223569869995117,0.11745621263980865,0.35361525416374207,0.4068514406681061,0.5527766346931458,-0.028565041720867157,0.5151789784431458,0.7105426788330078,0.6070354580879211,-0.23183311522006989,0.709699809551239,-0.05391232669353485,0.4391206204891205,0.34133243560791016,0.5960449576377869,0.1278899759054184,0.7248214483261108,-0.2892148792743683,0.8198621273040771,0.20248931646347046,0.3454034924507141,-0.07825901359319687,0.5218920707702637,0.1459658443927765,0.44180306792259216,0.2628563642501831,0.4376926124095917,0.046117618680000305,0.6791661381721497,0.013628135435283184,0.6345295310020447,0.3339206576347351,0.5214148163795471,0.04879552498459816,0.5061914324760437,-0.2403329610824585,0.7851595878601074,0.019965147599577904,0.4068642556667328,0.1737523078918457,0.5213977098464966,0.021004067733883858,0.397889107465744,-0.14960063993930817,0.4565487205982208,0.10535302758216858,0.4802885055541992,-0.24970443546772003,0.5156924724578857,-0.21015223860740662,0.5093565583229065,-0.052015338093042374,0.2874423563480377,1.446012258529663,0.4847482442855835,0.0519871823489666,0.4303092360496521,0.10255308449268341,0.4476681649684906,0.5879470705986023,0.44095540046691895,-0.11232225596904755,0.5107283592224121,0.248176708817482,0.5168439149856567,-0.10196961462497711,0.5332401394844055,0.14430716633796692,0.43043288588523865,-0.027204301208257675,0.3530176281929016,0.37083256244659424,0.46953678131103516,0.2090209275484085,0.7367113828659058,-1.377210021018982,0.3893684446811676,0.24293802678585052,0.49446552991867065,-0.3087984621524811,0.44686952233314514,-0.21197013556957245,0.43119046092033386,-0.11268966645002365,0.6288772225379944,-0.058811068534851074,0.5100731253623962,-0.2540991008281708,0.47055768966674805,0.029203394427895546,0.5315383076667786,0.9224517941474915,0.5068687796592712,-0.32035261392593384,0.5921476483345032,0.2825671434402466,0.48430076241493225,-0.10346144437789917,0.740306556224823,-2.6237924098968506,0.802172064781189,0.5931680202484131,0.5157086253166199,0.12024781852960587,0.39514634013175964,-0.5257804989814758,0.6585731506347656,-1.0045199394226074,0.31506434082984924,-0.5285715460777283,0.39098355174064636,-1.0824542045593262,0.41561540961265564,-0.4595750868320465,0.37829524278640747,0.2409805953502655,0.33758822083473206,-0.06346549838781357,0.2979658246040344,0.11471553146839142,0.5187954306602478,-1.9259371757507324,0.6129878759384155,0.4632883071899414,0.6383098363876343,-0.09064801037311554,0.7190284729003906,-0.18547850847244263,0.42547664046287537,-0.05885336175560951,0.6817432045936584,0.27909404039382935,0.5866187810897827,0.2760464549064636,0.4347476065158844,-0.04803764075040817,0.5118469595909119,0.6247895956039429,0.446832537651062,2.3829691410064697,0.5983660221099854,-0.29956644773483276,0.4584408104419708,0.2505929172039032,0.4294217824935913,-0.19831044971942902,0.4598292112350464,0.15599006414413452,0.68752521276474,0.8469674587249756,0.5132398009300232,-0.07116510719060898,0.7491527199745178,-2.6786856651306152,0.9039725661277771,-0.040804747492074966,0.3960355222225189,0.45070451498031616,0.5204764604568481,0.08648219704627991,0.5469803214073181,-0.6431102752685547,0.5054904818534851,-0.15570390224456787,0.43043315410614014,0.6023609042167664,0.660184919834137,0.2921975255012512,0.6427501440048218,0.023418938741087914,0.4135425388813019,0.7062318325042725,0.445849746465683,-0.943417489528656,0.4118107855319977,-0.1427498161792755,0.29021891951560974,-0.14980721473693848,0.34453070163726807,0.39276739954948425,0.37817007303237915,-0.35159945487976074,0.551634669303894,0.23800715804100037,0.501594066619873,-0.20634309947490692,0.4336879551410675,-0.013326193206012249,0.37401580810546875,0.4447520077228546,0.5568902492523193,-0.04775255173444748,0.5181258916854858,-1.283845067024231,0.5255107283592224,0.16717638075351715,0.3499242961406708,-0.18602852523326874,0.5048873424530029,-0.18135279417037964,0.3910483717918396,2.2833049297332764,0.8694934248924255,0.18520323932170868,0.7033011317253113,0.8847709894180298,0.3066437840461731,0.8885559439659119,0.4709758162498474,0.41895246505737305,0.4014951288700104,0.33819150924682617,0.7017138600349426,-0.4422069191932678,0.38390612602233887,-0.14260397851467133,0.4292813241481781,-0.4223148226737976,0.38036051392555237,0.31494206190109253,0.49103841185569763,-0.32429879903793335,0.4999893307685852,-0.19618134200572968,0.37504634261131287,-0.20403286814689636,0.4117226302623749
NLS135,-0.06837771832942963,0.40188929438591003,-1.1559685468673706,0.5026516914367676,0.33824488520622253,0.4046283960342407,0.13776163756847382,0.45826593041419983,0.3262595236301422,0.44291743636131287,-0.05832279473543167,0.4629403054714203,-0.47430679202079773,0.4824542999267578,-0.057965751737356186,0.3371972143650055,0.0235073734074831,0.46742141246795654,0.053363773971796036,0.5046616792678833,0.14787587523460388,0.34609606862068176,1.1105115413665771,0.45576030015945435,0.3985448181629181,0.34203341603279114,-0.6577444076538086,0.5630149841308594,0.13831603527069092,0.6527407169342041,-0.011344612576067448,0.2246605008840561,0.45800429582595825,0.37675464153289795,0.11646997183561325,0.46835625171661377,0.5614076852798462,0.32511961460113525,-0.030969977378845215,0.47846877574920654,-0.09902645647525787,0.3252423405647278,0.26478466391563416,0.5292633175849915,0.3025174140930176,0.4732649326324463,-0.30179569125175476,0.5062843561172485,0.17245617508888245,0.4413379728794098,-0.16099201142787933,0.564749538898468,0.14403720200061798,0.37077924609184265,0.11805703490972519,0.407721608877182,0.04572355002164841,0.5775702595710754,0.1325734257698059,0.8488011360168457,0.23993918299674988,0.38782402873039246,0.0940164104104042,0.42368969321250916,-0.10589826107025146,0.5576828122138977,-0.08740805089473724,0.47910162806510925,0.2726733088493347,0.5404768586158752,0.19928908348083496,0.41120633482933044,-0.17487822473049164,0.3712119162082672,0.01789204217493534,0.4749739170074463,-0.3246847093105316,0.4187082052230835,-0.2559587359428406,0.46007660031318665,0.03337335214018822,0.44507575035095215,1.2601600885391235,0.4132848083972931,0.039776213467121124,0.30431148409843445,0.09641041606664658,0.4022485315799713,0.47621580958366394,0.4518767297267914,-0.2526635229587555,0.4714810848236084,0.2898651361465454,0.4195218086242676,-0.14424052834510803,0.46654269099235535,0.16251245141029358,0.39785534143447876,0.04100656136870384,0.46539586782455444,0.3515847623348236,0.4174484610557556,0.17548660933971405,0.5881582498550415,-1.4316962957382202,0.6292677521705627,0.21417732536792755,0.4252477288246155,-0.3687807619571686,0.42716506123542786,-0.14624078571796417,0.397954523563385,-0.0912361592054367,0.5841999053955078,0.01671425625681877,0.42688530683517456,-0.10907495021820068,0.5355641841888428,-0.06007944047451019,0.5360597968101501,0.9152032732963562,0.48662838339805603,-0.10726180672645569,0.5145944952964783,0.368943452835083,0.5491534471511841,-0.07401630282402039,0.5720856189727783,-2.806703805923462,0.8486955165863037,0.4027958810329437,0.5560063123703003,0.1764526665210724,0.5605601072311401,-0.4035373628139496,0.3572487235069275,-0.909517765045166,0.4330945312976837,-0.4962524473667145,0.37658077478408813,-1.183455467224121,0.35123658180236816,-0.2823124825954437,0.36077621579170227,0.22395290434360504,0.3796844780445099,-0.11537078768014908,0.3842560052871704,8.806856931187212e-05,0.5478096604347229,-1.9266518354415894,0.40442872047424316,0.4682146906852722,0.531965434551239,-0.17363260686397552,0.44774025678634644,-0.2576964497566223,0.46590855717658997,-0.012679681181907654,0.35549265146255493,0.17882609367370605,0.3752908408641815,0.18709523975849152,0.27501198649406433,-0.04572110250592232,0.5324910879135132,0.7374016642570496,0.35570961236953735,2.5031936168670654,0.6266540288925171,-0.19198863208293915,0.3163934051990509,0.1835988312959671,0.30586063861846924,-0.07773903012275696,0.4269177317619324,0.14048556983470917,0.5050698518753052,0.7830600142478943,0.43015483021736145,-0.1028040274977684,0.5392427444458008,-2.8735568523406982,0.6903943419456482,0.0025361489970237017,0.2944711446762085,0.3566712737083435,0.6725689172744751,0.11961265653371811,0.3914247751235962,-0.6382027864456177,0.474647581577301,-0.12239939719438553,0.308460533618927,0.6328034996986389,0.39639991521835327,0.19122184813022614,0.35318127274513245,-0.016054818406701088,0.5929263234138489,0.7412510514259338,0.5108813643455505,-1.1492408514022827,0.4412583112716675,-0.18991807103157043,0.48016899824142456,-0.06279587000608444,0.3359169363975525,0.2422534078359604,0.5403445363044739,-0.3600330352783203,0.5552837252616882,0.3506498634815216,0.386655330657959,-0.2799304723739624,0.5190669298171997,-0.125837504863739,0.2987414598464966,0.518409013748169,0.32578161358833313,-0.2028285413980484,0.5850028395652771,-1.5041108131408691,0.6276687979698181,0.1710195541381836,0.2577759921550751,-0.33580511808395386,0.33536526560783386,-0.1871279925107956,0.4538019597530365,2.3856425285339355,1.0158042907714844,0.11511141806840897,0.4928983151912689,0.9373160004615784,0.42967408895492554,1.0388637781143188,0.42241257429122925,0.5859107971191406,0.5125851035118103,0.3567740023136139,0.4987338185310364,-0.39801329374313354,0.4184839725494385,-0.20156119763851166,0.3431248068809509,-0.35295024514198303,0.4098583459854126,0.4477018117904663,0.5103614926338196,-0.2615434229373932,0.5574021339416504,-0.15488287806510925,0.3683801293373108,-0.09303750097751617,0.5332558751106262
NLS139,-0.10391845554113388,0.3576824367046356,-1.2525547742843628,0.49412640929222107,0.36900871992111206,0.47861427068710327,-0.04554559290409088,0.6050663590431213,0.3332289755344391,0.7479760050773621,0.043995555490255356,0.4649897813796997,-0.42674967646598816,0.45254412293434143,-0.11131477355957031,0.4603384733200073,0.06456257402896881,0.37586623430252075,0.06282898783683777,0.37343552708625793,0.17623776197433472,0.5487726926803589,1.0180835723876953,0.27295801043510437,0.44812697172164917,0.39604607224464417,-0.5345199704170227,0.5311346650123596,-0.015715695917606354,0.4146166741847992,0.11556518822908401,0.2811877131462097,0.4567257761955261,0.37415051460266113,0.09400232881307602,0.6457352638244629,0.5628291964530945,0.5943028926849365,-0.18889892101287842,0.7158749103546143,-0.03982653468847275,0.35457754135131836,0.22772841155529022,0.5921778082847595,0.3062680661678314,0.6306642889976501,-0.41229256987571716,0.5591916441917419,0.03772823140025139,0.3330557346343994,-0.042956434190273285,0.6798754334449768,0.11364085972309113,0.3443651497364044,0.14369508624076843,0.35728317499160767,-0.03334001824259758,0.4608747065067291,0.02474370226264,1.0392955541610718,0.22058965265750885,0.38808679580688477,0.0049512735567986965,0.45744600892066956,-0.22471652925014496,0.5098626017570496,-0.21381516754627228,0.4482249915599823,0.43864041566848755,0.4392511248588562,-0.09595910459756851,0.45403367280960083,-0.06841181963682175,0.40844663977622986,0.10013160854578018,0.4283856451511383,-0.3481854498386383,0.39623087644577026,-0.3086529076099396,0.6241079568862915,-0.06302428990602493,0.3236834406852722,1.3776992559432983,0.6586297154426575,-0.013005212880671024,0.31597456336021423,0.14546051621437073,0.4264183044433594,0.6644569039344788,0.37696653604507446,-0.1920279562473297,0.3602822422981262,0.36038240790367126,0.42978161573410034,-0.19392092525959015,0.2912193834781647,0.1108994334936142,0.29516705870628357,0.09460762143135071,0.31834378838539124,0.33032339811325073,0.3479630649089813,0.0941874086856842,0.5625900626182556,-1.3490160703659058,0.4225987493991852,0.3563145399093628,0.3996172547340393,-0.3876936435699463,0.3733360469341278,-0.08758792281150818,0.4843840003013611,-0.21917739510536194,0.4269382059574127,-0.003684450639411807,0.4040853977203369,-0.08773467689752579,0.6847749352455139,-0.019767703488469124,0.351229727268219,0.7696734666824341,0.3671599328517914,-0.20003095269203186,0.5435378551483154,0.28260478377342224,0.40157684683799744,-0.12945698201656342,0.693382203578949,-2.8970162868499756,0.8523315191268921,0.3693631887435913,0.4591619670391083,0.13906943798065186,0.3709842562675476,-0.5010759234428406,0.45231637358665466,-1.000727891921997,0.4707777798175812,-0.36680975556373596,0.3184703588485718,-1.0840078592300415,0.4994646906852722,-0.4690980315208435,0.3517338037490845,0.19472363591194153,0.26090186834335327,0.007914150133728981,0.35675984621047974,-0.01814168319106102,0.4458162784576416,-2.1580111980438232,0.48932725191116333,0.6071932911872864,0.4424668550491333,-0.18018673360347748,0.5340275168418884,-0.16828025877475739,0.4727821946144104,0.014519097283482552,0.4430195987224579,0.252643346786499,0.5190829634666443,0.2681465744972229,0.3762986660003662,0.13740231096744537,0.36967602372169495,0.5956963300704956,0.3283078968524933,2.582934856414795,0.7058554887771606,-0.12020369619131088,0.38865482807159424,0.31159210205078125,0.385625958442688,-0.182214617729187,0.23008932173252106,0.06057099997997284,0.6020218133926392,0.8705753087997437,0.42672744393348694,-0.12880277633666992,0.7506824731826782,-2.965348243713379,0.9127527475357056,-0.04137013480067253,0.34932422637939453,0.5077329874038696,0.48088234663009644,0.1377759873867035,0.3415115177631378,-0.7629197239875793,0.3997221291065216,0.04908153787255287,0.5078160762786865,0.7864024639129639,0.3260473608970642,0.14769884943962097,0.3214048147201538,-0.05100354179739952,0.3644811809062958,0.6516481637954712,0.316143274307251,-1.1568628549575806,0.4162291884422302,-0.20277614891529083,0.3289988934993744,-0.1736050546169281,0.31679585576057434,0.25417694449424744,0.5172810554504395,-0.18739120662212372,0.4035166800022125,0.42470836639404297,0.4440329074859619,-0.259550005197525,0.33108943700790405,-0.09912191331386566,0.3007495403289795,0.3809960186481476,0.41160252690315247,-0.13825669884681702,0.3770270347595215,-1.5053249597549438,0.7024732828140259,0.14281928539276123,0.44135257601737976,-0.24398596584796906,0.29871270060539246,-0.10795217752456665,0.38477322459220886,2.7086527347564697,0.6975255608558655,0.05167340487241745,0.44365963339805603,0.8456094861030579,0.24508754909038544,0.9146116375923157,0.5637125372886658,0.5304660797119141,0.5916555523872375,0.29202723503112793,0.43948525190353394,-0.23712153732776642,0.3068561553955078,-0.20619189739227295,0.4113854169845581,-0.20422759652137756,0.43615013360977173,0.37397488951683044,0.5262138247489929,-0.28503334522247314,0.47852909564971924,0.11018668115139008,0.33251136541366577,-0.054907917976379395,0.3871901333332062
NLS140,-0.034370891749858856,0.4538809061050415,-0.9573496580123901,0.6946205496788025,0.294059693813324,0.3812345862388611,0.030643416568636894,0.4490925967693329,0.38288626074790955,0.37619632482528687,-0.0981823205947876,0.4194281995296478,-0.3455807864665985,0.44704824686050415,0.038549523800611496,0.5825255513191223,0.13888949155807495,0.42833226919174194,0.12533585727214813,0.41296640038490295,0.3919447362422943,0.5880484580993652,1.1408137083053589,0.3744489252567291,0.3955160975456238,0.4079972207546234,-0.645687997341156,0.6548769474029541,0.17266762256622314,0.36192813515663147,0.019970592111349106,0.23251847922801971,0.4757453203201294,0.35352522134780884,0.16403387486934662,0.5997171998023987,0.7005115747451782,0.4744735658168793,-0.39346247911453247,0.8383208513259888,-0.07070125639438629,0.3609475791454315,0.2926177382469177,0.4259762465953827,0.31280553340911865,0.442470520734787,-0.2494610846042633,0.8130943179130554,0.19407039880752563,0.32518115639686584,-0.23572354018688202,0.39795953035354614,0.1290166676044464,0.29281678795814514,0.08184119313955307,0.31533268094062805,-0.16712549328804016,0.39119359850883484,0.10672248154878616,0.750665545463562,0.2120283842086792,0.4661014676094055,0.0743064284324646,0.5525691509246826,0.005907111801207066,0.6308324337005615,-0.004075940232723951,0.4764527678489685,0.0663284957408905,0.47903114557266235,0.05499032512307167,0.6004235744476318,-0.15470853447914124,0.407282292842865,0.06819292902946472,0.6802663207054138,-0.12225344032049179,0.34495028853416443,-0.13711455464363098,0.5970238447189331,-0.07103634625673294,0.39520248770713806,1.5022573471069336,0.4742494225502014,0.1329880654811859,0.43522951006889343,-0.011504357680678368,0.47989678382873535,0.5763807892799377,0.38715746998786926,-0.21367700397968292,0.38981717824935913,0.1939953714609146,0.43212446570396423,-0.2059456706047058,0.35536912083625793,0.13656748831272125,0.46828725934028625,-0.017315590754151344,0.33121979236602783,0.23944984376430511,0.3999442160129547,0.1882432997226715,0.941330075263977,-1.486267328262329,0.45119163393974304,0.36495235562324524,0.4049464464187622,-0.37020984292030334,0.3690008819103241,-0.16939258575439453,0.3638526201248169,0.031853895634412766,0.5164891481399536,0.1041826531291008,0.47622546553611755,-0.2188941389322281,0.5549182295799255,-0.13445419073104858,0.45696818828582764,0.8181402683258057,0.5153191685676575,-0.2517460286617279,0.695172905921936,0.19047226011753082,0.3956354856491089,0.07914581894874573,0.6637181043624878,-2.7014687061309814,0.8940216302871704,0.3894825577735901,0.48917147517204285,0.1930023580789566,0.3736736476421356,-0.45905810594558716,0.3687361478805542,-0.9309976100921631,0.3417210876941681,-0.39644256234169006,0.33125802874565125,-1.0966973304748535,0.4796614944934845,-0.3618760108947754,0.49588751792907715,0.1673896759748459,0.34046512842178345,-0.09376008808612823,0.34201353788375854,-0.09622514992952347,0.4502939283847809,-1.8694242238998413,0.5569396018981934,0.37981072068214417,0.650753915309906,0.07796177268028259,0.7233438491821289,-0.2507129907608032,0.49778804183006287,-0.1028958186507225,0.6764029860496521,0.17567665874958038,0.45734041929244995,0.1640423983335495,0.34551772475242615,-0.09305635094642639,0.21076054871082306,0.5909422636032104,0.4417731761932373,2.4460082054138184,0.6923278570175171,-0.24606655538082123,0.5050612092018127,0.2270137071609497,0.39254996180534363,-0.2790202498435974,0.32006826996803284,0.17520153522491455,0.5798183083534241,0.7449867725372314,0.5077133178710938,-0.2807164490222931,0.6550742387771606,-2.8115851879119873,1.0199097394943237,0.00907001830637455,0.3259102404117584,0.4021628201007843,0.5250029563903809,0.16237832605838776,0.6642352342605591,-0.7552499771118164,0.3985374867916107,-0.1407366842031479,0.35197165608406067,0.5675977468490601,0.5133005976676941,0.3091900944709778,0.48816221952438354,0.024641701951622963,0.42836830019950867,0.7539482116699219,0.46022313833236694,-1.0714926719665527,0.4774538576602936,-0.2188568413257599,0.37305861711502075,-0.08897086977958679,0.2981022000312805,0.33114093542099,0.7903729677200317,-0.5110605955123901,0.652209997177124,0.3077859580516815,0.47384533286094666,-0.22679299116134644,0.4876241683959961,-0.044097866863012314,0.3731827437877655,0.5601078867912292,0.3460775911808014,-0.1317349225282669,0.7582440972328186,-1.3919059038162231,0.38739702105522156,0.10690382122993469,0.31019502878189087,-0.3461191952228546,0.41185346245765686,-0.2501097321510315,0.5292974710464478,2.3942136764526367,0.9083618521690369,0.110725998878479,0.67946857213974,0.9599158763885498,0.4742307662963867,0.9955228567123413,0.7055533528327942,0.5319367051124573,0.46580633521080017,0.3723847568035126,0.45139676332473755,-0.3836263418197632,0.3563140332698822,-0.250240683555603,0.33294686675071716,-0.2599751949310303,0.4953848421573639,0.416897177696228,0.6141996383666992,-0.31020742654800415,0.5527815818786621,-0.17730507254600525,0.37359580397605896,-0.1931188851594925,0.5666775107383728
NLS141,-0.03609650954604149,0.39267903566360474,-1.268302083015442,0.5994129776954651,0.306061714887619,0.5180481672286987,0.04667441546916962,0.44769352674484253,0.2903920114040375,0.5659573078155518,-0.03922966495156288,0.4844105839729309,-0.45209285616874695,0.5449116826057434,0.07462262362241745,0.631024956703186,0.16146120429039001,0.4244910180568695,0.07426046580076218,0.48332467675209045,0.1670396476984024,0.4431142508983612,1.0757782459259033,0.4530986547470093,0.39594027400016785,0.32373738288879395,-0.5485915541648865,0.54829341173172,0.1534823328256607,0.6022629737854004,0.04151926562190056,0.3487912118434906,0.38902178406715393,0.5263396501541138,0.1858297735452652,0.6486216187477112,0.5457298755645752,0.5289645791053772,-0.11367085576057434,0.5470127463340759,-0.14170432090759277,0.42362847924232483,0.21519647538661957,0.5361118912696838,0.2595263421535492,0.555011510848999,-0.2597253918647766,0.6774240732192993,0.11211201548576355,0.3969118893146515,-0.14193736016750336,0.5421987175941467,0.17831112444400787,0.35427913069725037,0.13229411840438843,0.41060012578964233,-0.11018355190753937,0.5026077032089233,-0.021369917318224907,0.814441442489624,0.26932045817375183,0.5113344788551331,-0.009098508395254612,0.4840710163116455,-0.14060427248477936,0.6650798916816711,-0.11055517196655273,0.5547671318054199,0.25066712498664856,0.513195812702179,0.04102926328778267,0.4930630922317505,-0.15988750755786896,0.4730569124221802,0.03826746717095375,0.5832921266555786,-0.2067522555589676,0.4126805365085602,-0.19347195327281952,0.5653564929962158,0.014566986821591854,0.43984851241111755,1.4328030347824097,0.6257004737854004,0.09111955761909485,0.37912893295288086,0.09091293066740036,0.44759759306907654,0.5063685774803162,0.4638080894947052,-0.34199631214141846,0.5007575750350952,0.3304567337036133,0.5371139049530029,-0.2065228819847107,0.3083534836769104,0.23780836164951324,0.42705586552619934,0.05731302127242088,0.47599121928215027,0.3516507148742676,0.3802781403064728,0.005374041385948658,0.7698984742164612,-1.4885857105255127,0.5820021629333496,0.2767201364040375,0.4198077321052551,-0.3576485812664032,0.452068030834198,-0.0697561576962471,0.4383229911327362,-0.11879810690879822,0.5047536492347717,0.0974043533205986,0.4289867877960205,-0.12027040123939514,0.44056764245033264,0.016241922974586487,0.35948434472084045,0.8940133452415466,0.45834121108055115,-0.12464142590761185,0.5119128823280334,0.25175240635871887,0.49144691228866577,-0.11352517455816269,0.5188827514648438,-2.9911115169525146,0.7656182050704956,0.39834240078926086,0.49340149760246277,0.08191139250993729,0.562288224697113,-0.5347065329551697,0.5122212171554565,-0.9833316802978516,0.47910362482070923,-0.44185832142829895,0.3952014148235321,-1.0695594549179077,0.3414188027381897,-0.27790361642837524,0.48014312982559204,0.15404392778873444,0.4177657961845398,-0.1459784358739853,0.4877641499042511,0.044533465057611465,0.5216460227966309,-2.0702624320983887,0.5492543578147888,0.45786941051483154,0.4721164405345917,-0.19436635076999664,0.6173191666603088,-0.10471749305725098,0.5200323462486267,0.03706980124115944,0.585085928440094,0.1622733622789383,0.3986097276210785,0.17080524563789368,0.3974898159503937,0.002852128352969885,0.3661201596260071,0.6084893941879272,0.4690396785736084,2.734937906265259,0.6433602571487427,-0.20029419660568237,0.5698368549346924,0.27802151441574097,0.41492483019828796,-0.19850583374500275,0.44705575704574585,0.07389373332262039,0.6113768219947815,0.7548797130584717,0.6461926102638245,0.017666736617684364,0.6697966456413269,-2.9059197902679443,0.7491864562034607,-0.02650996297597885,0.49831387400627136,0.41224420070648193,0.4791179299354553,0.022719161584973335,0.6099885106086731,-0.7006040215492249,0.41697922348976135,-0.14564059674739838,0.4822394847869873,0.6520987749099731,0.41148316860198975,0.26048940420150757,0.42415982484817505,-0.10281489044427872,0.38960593938827515,0.665681779384613,0.41697707772254944,-1.052575945854187,0.6313558220863342,-0.14033176004886627,0.3965151011943817,-0.14726774394512177,0.4640756845474243,0.29638001322746277,0.37348541617393494,-0.24775105714797974,0.6553771495819092,0.32602375745773315,0.44886672496795654,-0.19165974855422974,0.39557546377182007,0.02548096887767315,0.33389702439308167,0.4866093695163727,0.4292038083076477,-0.18511177599430084,0.4684637188911438,-1.4198365211486816,0.5271039605140686,0.16850876808166504,0.4515638053417206,-0.27615296840667725,0.39027735590934753,-0.12543277442455292,0.6541212201118469,2.5343596935272217,0.9753041863441467,0.030977904796600342,0.6526502966880798,0.8138576149940491,0.5159212946891785,1.0406261682510376,0.49783387780189514,0.6487671136856079,0.5379993915557861,0.40740832686424255,0.5862128138542175,-0.3656104803085327,0.46854838728904724,-0.1701619178056717,0.44731903076171875,-0.331251323223114,0.4940534234046936,0.38604772090911865,0.6714088320732117,-0.2584723234176636,0.5482279658317566,-0.0856790840625763,0.3268606662750244,-0.11838305741548538,0.4421934485435486
NLS142,-0.06179044023156166,0.4646027088165283,-1.0738499164581299,0.7333967089653015,0.3177460730075836,0.49596044421195984,0.04921412840485573,0.40701091289520264,0.26567694544792175,0.7481012344360352,-0.11552470922470093,0.5822219252586365,-0.43155908584594727,0.5772106051445007,0.002713808324187994,0.5857028961181641,0.14872418344020844,0.5226079821586609,0.011484884656965733,0.513197124004364,0.2619580328464508,0.5623114705085754,1.1044822931289673,0.3642956018447876,0.39963823556900024,0.4043915271759033,-0.6076821088790894,0.5748883485794067,0.0856536477804184,0.4526984989643097,0.021588381379842758,0.28635939955711365,0.46488097310066223,0.5544129014015198,0.16424037516117096,0.47410520911216736,0.5895295143127441,0.5328355431556702,-0.16508163511753082,0.6605364680290222,-0.08713528513908386,0.34896889328956604,0.2448059767484665,0.34461942315101624,0.33307185769081116,0.45723992586135864,-0.2960827350616455,0.6741785407066345,0.13762421905994415,0.36850860714912415,-0.08999329060316086,0.4715413451194763,0.13142316043376923,0.4460654854774475,0.16510944068431854,0.46636655926704407,-0.11375449597835541,0.5469405651092529,0.08118799328804016,0.6850600242614746,0.3262466788291931,0.3966417908668518,0.007818513549864292,0.6338400840759277,-0.14056579768657684,0.6135197281837463,-0.10570552945137024,0.7639279365539551,0.2812907099723816,0.4477647542953491,0.03339332342147827,0.39471936225891113,-0.15692636370658875,0.4338533282279968,0.12124616652727127,0.48138177394866943,-0.2596004903316498,0.5178888440132141,-0.3110474646091461,0.6087673306465149,0.07178858667612076,0.3056531548500061,1.4875046014785767,0.4915596842765808,0.09984079003334045,0.45015960931777954,0.04791436716914177,0.43455761671066284,0.5267590880393982,0.42848870158195496,-0.2453402280807495,0.4749370813369751,0.2999972701072693,0.36979642510414124,-0.05714082717895508,0.4330330491065979,0.07849135249853134,0.36262065172195435,0.045974262058734894,0.44051796197891235,0.3465029299259186,0.4787273406982422,0.12914420664310455,0.6104683876037598,-1.4635132551193237,0.5525519847869873,0.2981601357460022,0.48677894473075867,-0.4132213592529297,0.3982694447040558,-0.03374088555574417,0.32640138268470764,-0.13444893062114716,0.5942245125770569,0.08202686160802841,0.4802105724811554,-0.20306940376758575,0.5064561367034912,-0.10605029761791229,0.5044066905975342,0.8135852217674255,0.4357936680316925,-0.2122991979122162,0.5274994969367981,0.25802674889564514,0.4676514267921448,-0.01420204434543848,0.6800256967544556,-2.931377410888672,0.8148782253265381,0.4182218015193939,0.3819023072719574,0.0738685354590416,0.4768919348716736,-0.47230222821235657,0.33220335841178894,-0.9968668818473816,0.387846440076828,-0.4143916368484497,0.35883641242980957,-1.1330422163009644,0.4324856698513031,-0.39960068464279175,0.47090139985084534,0.10144570469856262,0.3649764060974121,-0.1002376601099968,0.32699912786483765,0.005884833633899689,0.46019741892814636,-2.1012325286865234,0.5109307169914246,0.4190492331981659,0.36833319067955017,-0.14648735523223877,0.5902041792869568,-0.09521723538637161,0.5205052495002747,-0.05201905220746994,0.481256365776062,0.18173114955425262,0.4538976848125458,0.15299473702907562,0.34321868419647217,-0.0006061619496904314,0.41152340173721313,0.6108262538909912,0.3471696972846985,2.559293031692505,0.5385898947715759,-0.21485213935375214,0.47980692982673645,0.2972525358200073,0.5882893204689026,-0.2595551908016205,0.43457821011543274,0.13686378300189972,0.48304077982902527,0.7967330813407898,0.5828399062156677,-0.08289478719234467,0.6260056495666504,-2.882922649383545,0.9078832864761353,-0.043019846081733704,0.3289411962032318,0.4186747968196869,0.5189011096954346,0.14729630947113037,0.41678857803344727,-0.7426624298095703,0.40332743525505066,-0.05102619156241417,0.4647841453552246,0.6707205772399902,0.37758946418762207,0.21572326123714447,0.35495781898498535,-0.09148050844669342,0.5761730670928955,0.7467832565307617,0.5540398359298706,-1.1057047843933105,0.594180703163147,-0.15111041069030762,0.3709885776042938,-0.10312406718730927,0.23956690728664398,0.3796757459640503,0.3737504780292511,-0.313032329082489,0.6437804102897644,0.3978895843029022,0.362562894821167,-0.23910614848136902,0.4048771858215332,-0.06728522479534149,0.3167811632156372,0.5113875269889832,0.37880900502204895,-0.10989843308925629,0.5210326910018921,-1.4556201696395874,0.5233520865440369,0.1993921548128128,0.3787868916988373,-0.2258276343345642,0.3227299451828003,-0.12600772082805634,0.4922229051589966,2.4991798400878906,0.8196333050727844,0.06671731173992157,0.5171530842781067,0.7675593495368958,0.45615440607070923,1.014837622642517,0.6672530174255371,0.5262936949729919,0.43437400460243225,0.4134387969970703,0.5500615239143372,-0.3428555130958557,0.4672546982765198,-0.1993563175201416,0.5799542665481567,-0.2776588797569275,0.3832342028617859,0.3005068898200989,0.5148776769638062,-0.25800421833992004,0.5374327898025513,-0.08808140456676483,0.3681563138961792,-0.06370140612125397,0.5126165151596069
NLS143,-0.09662527590990067,0.46643495559692383,-1.1472702026367188,0.7474989295005798,0.39203622937202454,0.4910355508327484,0.0626707375049591,0.47094419598579407,0.3945021331310272,0.5189622640609741,0.010044578462839127,0.41829967498779297,-0.41042736172676086,0.44957321882247925,-0.049567434936761856,0.5164974927902222,0.11928213387727737,0.48856744170188904,0.11104822158813477,0.45494896173477173,0.1622282862663269,0.5358573794364929,1.0156053304672241,0.3970267176628113,0.5548698902130127,0.3369784951210022,-0.60721355676651,0.46684473752975464,0.16459853947162628,0.3769454061985016,0.05882452055811882,0.34439918398857117,0.40957972407341003,0.4275745451450348,0.24148398637771606,0.5210010409355164,0.5881742238998413,0.5296692848205566,-0.12559552490711212,0.5012935400009155,-0.018404249101877213,0.3919200003147125,0.24677306413650513,0.396608829498291,0.2525869309902191,0.4549212157726288,-0.36216723918914795,0.6930028796195984,0.10031594336032867,0.31416454911231995,-0.15320955216884613,0.49194830656051636,0.08721683919429779,0.3190763592720032,0.09550117701292038,0.3111928403377533,0.00283832848072052,0.4553737938404083,0.0470392145216465,0.6358216404914856,0.21382242441177368,0.36580678820610046,0.0038921283558011055,0.4421565532684326,-0.09765902161598206,0.6212484836578369,-0.1777460277080536,0.41725626587867737,0.20664280652999878,0.45916512608528137,0.06951849162578583,0.3741219639778137,-0.09535451233386993,0.43798118829727173,0.13601809740066528,0.4131987690925598,-0.26707401871681213,0.546592116355896,-0.1680096983909607,0.44037437438964844,-0.07101456820964813,0.29744425415992737,1.4997904300689697,0.49561265110969543,0.13559436798095703,0.31229346990585327,0.07655243575572968,0.5660199522972107,0.4971596896648407,0.3412286639213562,-0.29034093022346497,0.37013164162635803,0.15034793317317963,0.5145459771156311,-0.1652446836233139,0.46208304166793823,0.04337632283568382,0.40472179651260376,-0.025869358330965042,0.44867655634880066,0.3404107093811035,0.33768823742866516,0.23523566126823425,0.8083868622779846,-1.3417441844940186,0.46863722801208496,0.2536572813987732,0.2733302712440491,-0.3455793559551239,0.24968020617961884,-0.21142402291297913,0.5382129549980164,-0.0803125649690628,0.43088507652282715,0.09987841546535492,0.435337096452713,-0.20378893613815308,0.4641544818878174,-0.08693555742502213,0.462292343378067,0.8966822028160095,0.4619978368282318,-0.19245408475399017,0.38586169481277466,0.37839481234550476,0.4321477711200714,-0.021991832181811333,0.6493895649909973,-3.053475856781006,0.7576473355293274,0.3312970697879791,0.5149552226066589,0.15371111035346985,0.4936421811580658,-0.470407634973526,0.5116642117500305,-0.8408740758895874,0.44486916065216064,-0.36241596937179565,0.3706316351890564,-1.216188669204712,0.3799259662628174,-0.19624105095863342,0.42105811834335327,0.22647689282894135,0.3309045433998108,-0.11999254673719406,0.4757227599620819,-0.060930829495191574,0.5500842928886414,-2.016859292984009,0.7314170598983765,0.7689548134803772,0.5982786417007446,-0.21758034825325012,0.5366772413253784,-0.25751903653144836,0.5014020204544067,-0.09855913370847702,0.575774610042572,0.1613074392080307,0.37297165393829346,0.15799552202224731,0.29902181029319763,-0.005588956642895937,0.2898232638835907,0.4994640350341797,0.36004865169525146,2.5929179191589355,0.8593333959579468,-0.1917782723903656,0.5638989210128784,0.2720048725605011,0.4074194133281708,-0.11148340255022049,0.4568641781806946,0.07419081032276154,0.4949456453323364,0.9081792235374451,0.4823794662952423,-0.2102646678686142,0.7047328352928162,-2.950188636779785,0.9946046471595764,0.004125479143112898,0.3234345614910126,0.5046257376670837,0.5828399658203125,0.2293764054775238,0.4534648060798645,-0.7084571123123169,0.42680180072784424,-0.015147792175412178,0.41987618803977966,0.7629159092903137,0.4242635667324066,0.21326783299446106,0.4693942666053772,-0.027134954929351807,0.5222245454788208,0.6228986978530884,0.30011773109436035,-1.2274492979049683,0.4881284236907959,-0.17299699783325195,0.36827564239501953,-0.13876987993717194,0.22620469331741333,0.24212779104709625,0.4808084964752197,-0.2492252141237259,0.501375138759613,0.32948970794677734,0.39069536328315735,-0.33981725573539734,0.4162154197692871,0.02913524955511093,0.37897807359695435,0.4205028712749481,0.32946619391441345,-0.11679216474294662,0.3129008114337921,-1.6007105112075806,0.5631088018417358,0.13256649672985077,0.369115948677063,-0.36269569396972656,0.4244111478328705,-0.21248768270015717,0.4277144968509674,2.5630922317504883,0.847152054309845,0.022859884425997734,0.5174931883811951,0.9347379207611084,0.45862138271331787,0.9618502855300903,0.4152958393096924,0.6625033020973206,0.4698082208633423,0.35659825801849365,0.46203070878982544,-0.42583876848220825,0.3069137930870056,-0.1327870935201645,0.4587782323360443,-0.22915704548358917,0.34463128447532654,0.2871639132499695,0.4301205575466156,-0.3007400631904602,0.4862210750579834,-0.09563037008047104,0.24743248522281647,-0.10548298805952072,0.4606650173664093
